320 100
フェラチオ -0.015675569 0.17800483 -0.2066328 -0.20091784 -0.5262762 -0.29697978 0.1564279 -0.17822668 -0.044961713 -0.3398055 0.035960756 0.097817324 0.052189495 0.13582766 0.14065157 0.15844592 -0.9441682 0.14770494 -0.5855512 0.31283683 -0.44398898 -0.17025445 0.52539206 -0.8354106 0.28649977 -0.10535163 -0.1865562 -0.44900182 -0.58333457 0.29227695 -0.9747744 0.49114186 0.46384636 -0.31233224 -0.3714471 0.6122335 -0.024218807 0.23431486 -0.073756464 0.2675376 0.43720177 0.370816 -0.5874881 0.12318327 -0.2842105 0.092016235 0.053169705 0.6192605 0.1551324 -0.6386917 -0.0048917723 -0.06755589 -0.42992467 -0.5515858 0.5652969 -0.49931383 0.37796414 0.004754981 -0.0069167223 -0.1370052 -0.3071457 -0.26927426 -0.34467256 -0.5479035 -0.027436847 -0.25787488 0.050809633 -0.118517704 0.32012314 -0.1808063 0.63550764 0.48991367 -0.5026208 0.0040514525 0.31468362 -0.3886687 -0.23250633 -0.10318774 -0.45198837 -0.4364098 -0.26234907 0.23370923 0.08069147 0.14268854 -0.34540266 0.2142312 0.0918586 0.23815547 -0.18152921 0.17876498 -0.041116647 0.036444727 0.053651355 0.3635808 0.17553356 0.05541344 0.09810225 -0.032620624 0.080660544 0.18186699
癒し -0.4540503 0.1605984 0.15053384 0.17450061 -0.37193617 0.12940395 0.29793325 0.20541303 0.5805904 -0.8729764 -0.15304932 -0.41961896 -0.65948784 0.63998497 -0.2563297 -0.14628904 -0.25590727 -0.32647908 0.59661883 0.76918375 0.24158256 0.16159053 -0.74021506 0.343653 0.013743283 -0.4398579 -0.62248504 -0.65889037 -0.05740448 -0.27947342 -0.5151063 -0.17119774 -0.8713827 0.029988684 -0.19944203 -0.45439157 0.27776045 -0.27992696 0.46880993 -0.09957785 0.069920085 0.39029324 0.25693092 -0.21873026 -0.66219354 -0.9309688 1.0969126 -0.19302304 0.6518029 0.24021228 0.46926668 0.61525565 -0.307649 0.067942135 0.6351701 0.6973053 0.12489412 0.019033194 0.59890574 -1.3568128 0.5356594 -0.019533481 -0.22847831 0.344756 -0.37952036 -0.16145141 0.0198259 0.1417747 0.37914264 0.50570875 -0.26024762 0.32672912 0.18614203 0.5730169 0.06332865 -0.10712226 -0.4226177 0.020177402 0.12362834 0.6941249 0.5110776 0.11603392 0.46116844 -0.17948353 -0.15190761 0.22546217 0.30217484 0.32663012 0.9177529 0.119903035 0.4339881 -0.59840435 -0.035191655 0.11221697 0.08454034 0.4610731 0.5154821 -0.58499134 0.96316856 -0.1959446
バイノーラル/ダミヘ -0.047208134 -0.019949673 -0.48641604 -0.25414097 -0.3648787 0.095332764 -0.5843015 0.07067323 0.22758836 -0.08905553 0.32443693 0.36630964 -0.32264832 0.6693089 -0.14068383 0.447452 -0.16450648 0.19854526 -0.15116376 0.5043387 -0.015124552 -0.037476808 -0.2989258 -0.2574625 -0.17895351 -0.35892108 -0.0036133789 -0.5229419 -0.36808413 -0.10314141 -0.14619333 0.40334576 -0.3377165 0.39547274 0.055269506 -0.2954895 -0.12808962 0.3551517 0.09118239 -0.24485938 -0.33013698 0.20965695 0.17311105 -0.3009951 -0.10768719 -0.54279333 0.30902278 -0.31792104 0.32685804 0.4738969 -0.19994913 0.32540146 -0.70160025 0.2660923 0.1811593 -0.26350287 0.67800194 -0.41686225 0.39523742 -0.6874497 0.588752 -0.2815951 -0.1990181 -0.3429478 -0.36421546 -0.12520535 -0.045742564 0.069100186 -0.52131575 -0.57516885 -0.50042313 0.03445137 0.1653536 0.38596866 0.1442838 0.2044486 0.30497733 -0.1515184 -0.27004498 0.3801681 -0.011987041 -0.0035940357 0.15949078 0.04609823 0.072367005 0.45518106 0.40073758 0.04887827 0.39613262 -0.15983523 0.20722406 -0.19496648 0.3634373 0.24056356 -0.59997267 0.25049248 0.15374538 -0.7721916 0.123631515 -0.5993783
中出し 0.3380406 0.46838024 0.34517002 -0.27765304 -0.30383724 -0.32788268 0.07353455 0.6615319 -0.49893665 -0.17195976 0.37921453 -0.17821808 -0.5726835 0.09791546 -0.5652517 -0.28505468 -0.43952203 -0.46382234 -0.46388128 0.33783033 -0.16229036 0.081949934 0.34184596 -0.3335125 0.10566749 -0.5403107 -0.23701707 -0.22485836 -0.048660558 0.6482504 -0.44928655 0.6543844 0.16221319 0.056274682 0.49589196 0.40699905 -0.32443953 -0.052569877 -0.0632988 0.0732325 -0.1601719 -0.43593833 -0.53531253 -0.29869443 0.013512765 -0.09619967 -0.03473393 0.75013417 0.20496677 -0.9165653 0.36207187 -0.31612492 -0.20142207 0.114594586 0.42178202 0.0060722018 -0.27694613 0.02593054 -0.1234825 -0.35461795 0.12577504 -0.52731574 -0.66321194 -0.5186673 0.0067257006 0.12481421 0.5031935 -0.75877446 -0.10361396 -0.051539537 -0.10543736 -0.015426427 -0.029105656 0.4727156 0.4454712 -0.032176584 0.27767152 0.3542564 -0.024299163 0.0091509605 -0.1268404 0.1196928 -0.037586346 0.39316127 0.039817642 -0.010071721 0.53716075 0.07301904 0.33125103 0.12567757 -0.42048857 -0.25506076 0.89218426 -0.07341113 0.3446179 -0.06759177 -0.67899966 0.07518748 0.03903804 -0.1354848
淫語 -0.098284915 -0.4815068 0.19388616 -0.38092002 -0.37133488 -0.16464289 0.31612742 -0.14035 0.5155535 0.014289184 0.04765541 -0.09367964 0.078831874 0.036260147 -0.27049318 -0.07202781 -0.6392678 0.3738072 -0.049423814 0.0071222847 -0.2673593 0.566841 -0.29461342 -0.15989156 -0.21054144 0.0553074 0.09939693 -0.17164844 -0.38689235 0.22433214 -0.3372867 -0.13299996 0.03686076 0.17146927 -0.40069205 0.5155245 -0.77213883 0.4684178 -0.076228246 -0.23507975 -0.53402644 0.35086536 -0.21590246 0.10601005 -0.22290924 0.1417268 -0.04468334 0.43811375 0.1447556 -0.036972757 0.24265371 0.0699711 -0.3747302 -0.21211688 -0.13033772 -0.06360532 0.32216126 0.08071682 -0.2991272 -0.068985574 0.15753117 -0.2807352 0.023044448 0.03479356 0.3239593 -0.07325578 0.0352785 0.59090924 0.47931907 0.034506533 0.12488748 0.025357014 0.12526351 0.32466617 0.47566745 0.4561582 -0.09848833 0.13883138 -0.24350408 -0.21123847 -0.3325702 0.10822749 -0.009305651 0.045350548 -0.036629938 -0.0011064125 -0.112970084 -0.3497123 0.45663553 -0.020402411 -0.47290382 -0.090275235 0.45848235 -0.0022673926 -0.33009797 0.0607547 0.255453 0.013124412 0.43342787 0.6475076
ラブラブ/あまあま -0.52385503 0.35968608 -0.610117 -0.11031436 -0.53533417 -0.09107635 -0.06588657 0.64586043 -0.11506009 -0.0656198 0.46184364 0.10425336 -0.33361998 0.23236142 -0.32295284 0.037817147 -0.21423884 0.5314876 0.10612471 0.6674673 -0.27470344 -0.6419143 -0.109315425 0.041299127 0.49385402 -0.20849745 -0.32652962 -0.5434867 -0.75335693 0.48524526 -0.13115488 0.26224777 -0.006831764 0.29911825 0.41375288 -0.3301651 0.28371248 -0.04710044 -0.021702742 0.25402385 0.06436771 0.4223899 -0.37811214 -0.23292048 -0.31908563 -0.3447113 0.039245114 0.23485552 -0.085012704 -0.06513242 0.019234309 0.019421939 -0.5266789 -0.04122312 0.012743055 0.21393935 0.321337 -0.15739076 0.024472322 -0.40622106 0.057957266 -0.4473974 -0.6885637 -0.044611108 -0.30220017 -0.21001957 0.42598274 0.091300994 -0.105412774 -0.1356719 -0.21502648 0.4334297 0.045155007 0.7023265 0.39073995 -0.18341453 -0.06964812 0.035724923 0.1306476 -0.123320125 0.3131011 0.38170782 0.15611719 0.6314468 -0.24202862 0.31828633 0.14357644 0.71858364 0.60710675 0.38081032 0.08933564 -0.48167875 0.37965164 0.3187965 0.45971748 0.42640325 -0.2848976 -0.023403516 0.7770028 -0.3158351
言葉責め 0.43710616 -0.2223552 0.7680006 0.0385778 -0.066769324 0.4350096 0.051114164 -0.023371393 -0.38590634 0.66026515 -0.31856143 0.0903448 0.13992882 0.011230948 -0.19146422 0.687082 0.008922979 -0.82708186 -0.30766052 0.046928503 -0.64549214 0.58664083 0.15931585 -0.30716097 -0.15478864 0.35011682 0.057310365 -0.2101673 -0.29174936 0.09830671 -0.087318495 0.21561985 0.3318332 0.6162984 0.4103321 0.8141058 -0.668484 0.42725524 0.14222391 -0.49544582 -0.28634912 0.60824436 -0.71085376 -0.4906994 -0.8699137 -0.06099259 0.16526675 0.50862443 -0.168683 -0.48901084 -0.3333975 -0.49637088 -0.07560184 -0.58419025 0.3403801 -0.8380685 -0.089424536 0.49821037 -0.068116 -0.34641358 0.22723311 -0.36639664 -0.28960568 -0.022450252 -0.13386494 0.0014592345 -0.101702504 0.26139766 -0.045204654 0.6272886 0.08364801 -0.12052531 0.6064105 -0.6666895 0.64067525 -0.33109802 -0.51722926 0.06562112 -0.33694994 -0.47857255 -0.43188924 0.066993885 -0.30112013 0.10127885 0.067531906 -0.30053416 0.06773506 -0.18024597 0.08559562 -0.30806217 -0.23400828 0.48853925 0.34819362 -0.85172355 0.14900464 -0.53823733 0.33683208 -0.8463428 -0.40377852 0.53497666
オナニー 0.40881312 -0.4294166 0.18817563 0.21918763 -0.14373934 -0.055413514 -0.15041284 0.13763349 0.22451852 0.35364807 0.051010843 -0.14553224 0.20489068 -0.20268235 -0.042800143 0.16393715 -0.14529018 0.13968527 -0.6429136 0.021337101 -0.37580115 0.2542045 0.08509171 -0.27027076 0.15717232 -0.24176335 0.16975947 -0.04515682 -0.049112327 0.07687979 -0.085286885 0.37035033 0.7853125 0.27755257 -0.13775167 0.31963468 -0.17993058 0.21274927 0.021709926 -0.30486748 -0.12020511 0.084281534 -0.49784225 -0.07716018 -0.69310814 -0.31735513 0.097186916 -0.019416386 -0.13822569 -0.5048546 -0.13295165 0.3438436 -0.119681336 -0.23245938 -0.33919802 -0.49297488 0.18578468 0.16956608 -0.08640268 -0.45795956 0.18931317 -0.08037485 -0.50001234 0.12643123 0.10377471 -0.077887625 -0.13133402 0.18563472 0.030127233 0.64527774 -0.38486695 0.22594036 0.50770146 -0.42611545 0.040795673 -0.04880221 -0.10677045 0.071196154 0.39438316 -0.049774826 -0.13504659 -0.13692051 -0.3494786 -0.150088 -0.18351452 -0.3020151 0.32470322 -0.3993349 0.20174688 0.042957626 -0.539099 0.1946906 -0.23113944 0.029762242 0.24576189 -0.44878146 0.20190969 -0.042487256 0.4463391 0.10323524
手コキ 0.2724858 0.059671193 -0.27490804 -0.118411474 0.0954916 0.11378279 0.26249415 0.21065164 0.11205484 0.1756509 -0.2629937 0.06642008 -0.086613886 0.14802177 0.18198214 0.27351475 -0.30967364 0.31134677 -0.08362332 0.04180468 -0.38603863 0.1820442 -0.15802027 -0.3779535 0.06429959 -0.3025844 -0.042827502 -0.36471254 0.11037197 0.43525282 -0.36022207 0.03154921 0.5958422 0.087230824 0.14241424 0.12642063 0.0028173884 -0.074910946 0.21992478 0.10518089 0.052318864 0.26375356 -0.5884523 0.17588016 -0.35035887 -0.1319915 0.09836449 0.6394362 0.22692499 -0.20799811 -0.09458583 0.067302234 -0.21987535 -0.19962476 0.07044811 -0.31148255 0.31518865 -0.15205117 0.2453161 -0.65436244 -0.03308886 -0.209087 -0.28855565 -0.30681655 -0.38740328 -0.1264261 0.21380529 -0.2116339 0.21680495 -0.07447038 -0.43188483 0.1465454 -0.03588158 0.4764594 0.05069575 0.34182903 -0.41675043 0.036578603 0.04128849 -0.30653256 0.33821142 0.40964717 -0.07210003 0.15017381 -0.6416903 0.37518162 0.37149858 0.054238338 0.43680748 0.3125133 -0.11407632 -0.0063332533 0.4117163 -0.21368219 -0.28952053 -0.095724024 0.12412987 -0.10146373 0.2617823 0.19275694
ASMR -0.28156713 0.3249324 -0.43519446 -0.16870876 0.09538234 0.056522958 0.3316021 0.10233552 0.28247678 -0.26209432 -0.07784586 -0.26370934 -0.38666937 0.17824619 -0.017072394 0.027422545 0.16657984 0.11552386 0.10965507 0.44199526 0.22602995 -0.21478762 -0.47552028 0.36376375 0.23953179 -0.31113428 -0.33135214 -0.52259105 0.06721897 -0.05880362 0.2445444 -0.22748813 -0.17368695 0.14928524 0.64805305 -0.38604355 0.26155075 -0.1625542 0.16918987 0.21459697 -0.58580834 0.39974004 -0.09506485 -0.3650449 -0.37772456 -0.18753983 0.47232717 0.4173761 0.4907741 -0.22932008 -0.06963089 -0.49536973 0.037993174 0.019128565 -0.07173813 0.12191876 0.28287122 -0.21683498 -0.045172725 -0.75148475 -0.19909762 -0.17384495 -0.2143348 -0.1186762 -0.14913096 0.037291273 -0.011645243 0.20925215 0.38895378 -0.15398602 -0.11248067 0.41600683 0.20297948 0.7781433 0.20647117 -0.32692158 0.11136465 -0.44716653 0.22201063 -0.05140767 0.65763605 -0.013688957 0.37427378 0.47606105 -0.2002433 0.17945187 -0.21897155 0.3543414 0.42721215 0.14232375 0.2744596 0.08144471 0.20061547 -0.28720632 -0.020972699 0.537554 0.5473836 0.09627305 0.62511367 0.36216176
男性受け 0.2564317 0.0014835255 0.27318108 0.03080446 -0.09225899 0.21035358 0.11451757 -0.13654585 0.14857984 0.5186122 0.19777916 0.1676156 -0.16280076 -0.27097276 -0.11665865 0.45662922 -0.34860602 -0.4094963 -0.3933691 -0.4109823 -0.5272795 0.7877086 -0.07832738 -0.4823807 0.14667478 -0.43345085 0.0633271 -0.42343226 0.02322346 0.31309494 -0.34979972 0.68821985 1.1545361 -0.05787431 0.60624564 0.3367272 -0.69585365 -0.021910591 -0.03753768 -0.473618 -0.033509783 0.4128188 -0.5733809 -0.29823038 0.042434018 0.00974717 0.14500007 0.4352547 0.42639503 -0.30932015 0.082272016 -0.5918401 -0.5274008 -0.6073062 0.2680802 -0.86318254 0.6466576 0.13139905 -0.16235533 0.035391685 0.23094657 0.075190105 -0.40396616 -0.53604615 -0.13708937 -0.5968539 -0.25914028 -0.3671992 0.5083878 0.31627676 -0.043718122 0.28709096 0.14199126 -0.19530416 -0.25654858 -0.093450084 -0.32657263 -0.0006841085 0.06667059 0.0079843495 0.20640165 0.054268915 -0.50854737 -0.10407506 -0.16426839 -0.004453145 0.44915178 -0.09964074 0.42616904 0.49673495 -0.52304447 0.70110244 0.49021018 -0.13744447 -0.40787202 -0.6240228 0.2464405 -0.19355606 0.49151474 0.38375852
- -0.0013904835 0.004561744 -0.0028324847 -0.0004464929 -0.0033949395 0.0036973425 -0.0009524148 -0.0027564913 0.0028397234 0.00010125477 0.0019107991 0.0041496134 -0.004820782 0.002508655 -0.0039949715 -0.0045472854 0.0038989629 0.0045354366 0.0007356465 0.00025392586 -0.0001551776 0.00150847 0.0014483188 0.0013414065 0.003106949 0.0001327568 -0.0013883571 0.0014932194 -0.004987334 -0.0048642023 0.0009162512 0.0027301123 0.0049275276 -0.0028303994 0.002584875 0.0007271467 -0.004423194 0.0034185918 -0.0026523536 -0.004646497 0.0024239267 0.0039917645 -0.002383794 0.00081082754 0.0005181656 -0.0019147815 0.0041681784 0.0008247539 0.001632978 -0.0007590063 -0.004307211 -0.0034038404 -0.000114224385 -0.0025070228 0.00238868 -0.0018308306 -0.0046644667 0.00228821 -0.000111308815 0.004835886 0.0043117995 -0.00012469484 -0.002401984 -0.004569387 -0.0010708743 -0.0033797086 0.0018387442 -0.0041061165 0.0019620438 -0.0027418188 0.0024316807 0.001511723 -0.004781522 0.0028245868 0.002470407 -0.0004503451 0.004694896 -0.0022128792 -0.003177368 -0.00359886 -0.004653568 0.0038888843 -0.0022320305 -0.0008230041 0.0025459873 -0.00036662424 0.00291682 -0.0022616645 -0.0018969534 -0.0008184262 -0.00040781865 -0.00490326 0.0016527337 -0.00039837966 0.0025697649 0.00026880292 -0.0014725253 0.0012333111 0.0035055708 -0.002389931
萌え -0.24567732 -0.29235244 -0.5912772 -0.48589036 -0.34387356 0.0064209863 -0.12522654 0.2653638 0.10304943 -0.48802704 -0.5267052 -0.12383981 -0.29608053 0.575019 -0.2579249 -0.1844585 0.072648905 0.336421 0.24216145 0.83882457 0.32394773 -0.2862676 -0.41915008 0.18157336 0.10756779 0.027649108 -0.22500984 -0.14120412 -0.23140472 -0.055285215 0.15174066 -0.49485865 -0.6588766 0.45766324 -0.10149181 -0.24988486 0.4200605 -0.12487292 -0.11587694 0.13074796 -0.29013214 0.31586537 -0.19893041 -0.13003993 -0.5055843 -0.46949944 -0.010485272 -0.061113138 0.27099973 -0.037617505 -0.39649007 0.23507977 -0.28360936 0.051788196 -0.24635234 0.05277196 0.19778934 -0.37014756 0.17068736 -0.8321689 0.2849125 -0.0929727 0.36774245 -0.10658078 -0.06376437 0.16584818 -0.015317633 0.34247023 0.2712682 0.006922361 -0.29867217 0.053162906 0.5534363 0.7585685 0.29179037 0.2629535 -0.075014085 -0.39419302 0.042622402 0.10592771 0.19676843 -0.32554653 0.5467519 0.24474719 -0.42852414 -0.019716598 -0.20024143 -0.056105632 0.5437963 0.0036656815 0.52021825 0.010250805 -0.14498863 -0.1823083 -0.3383539 0.9118883 0.55115426 -0.21004426 0.12782554 0.10217921
耳かき -0.15862606 0.20749535 -0.24483538 -0.20540154 -0.35919443 0.019609625 0.56822807 0.39367646 -0.07232978 -0.5677304 0.18000472 -0.15045878 -0.46797606 1.0335968 0.26495093 0.5015567 -0.1969399 -0.12594679 0.25961146 0.49967417 -0.016977932 -0.57292485 -0.46370035 -0.33161795 0.23409392 -0.1619473 -0.21583365 -0.82650524 -0.44515368 0.42552865 -0.4824641 -0.112921506 -0.6104477 0.18965061 0.6075659 0.011252031 0.18782601 0.018938871 0.26034823 0.24392617 -0.25189707 0.009245691 -0.2887132 -0.29842696 -0.11004168 -0.47127897 -0.19285323 -0.03768171 0.29412216 0.18011855 -0.37033474 0.40715012 -0.44082463 0.046070956 0.44054258 0.32154015 0.24782248 -0.21955249 0.28012374 -0.8722935 0.37786886 -0.667827 -0.17859133 -0.39542308 0.060324453 -0.47424608 0.1454619 0.22374597 0.54941493 0.26977807 -0.6032144 -0.06992559 0.20066291 0.7489363 -0.18903005 0.022574639 0.32595164 -0.07057912 0.18600418 0.0384106 0.69079125 0.037152298 0.28660977 0.55792075 -0.4861854 0.054671016 0.47322357 0.92638654 0.47071466 0.022970585 0.13337484 -0.21866113 0.261758 -0.13150711 0.010079486 0.8945175 0.3481731 -0.81707513 0.3024287 -0.2806612
耳舐め 0.041305125 0.33483052 0.04551257 0.09950213 -0.15882456 0.43199998 0.39268443 0.49377382 -0.056962363 0.45078453 0.36109874 0.37310672 0.02937721 -0.18511051 0.19241145 0.26420844 0.075137965 -0.19101393 -0.10101141 0.32365033 -0.07693326 0.15611987 0.16638413 -0.82964283 0.11634372 -0.6529316 -0.37646952 -0.71406746 0.27260765 0.58421135 -0.37293264 0.627448 0.5479596 0.22658166 0.44019714 0.2796224 -0.0431691 -0.31137547 0.2178345 0.14229314 -0.4205329 0.43185177 -0.4212389 0.15920348 0.121475644 -0.22904897 0.30527523 0.29705754 0.29183814 -0.07171921 -0.41132814 -0.23417766 -0.13713168 0.08148849 0.59244925 -0.2834101 0.5789908 -0.502206 -0.21715271 -0.57616204 0.14104274 -0.43326533 -0.46334141 -0.58569604 -0.2288759 0.09250683 -0.19583635 -0.30711234 -0.010516625 -0.051114045 -0.33846268 0.14464265 0.120612174 -0.012277112 0.22717462 -0.043565873 -0.19385973 -0.1335587 -0.4342701 -0.30375025 0.50306225 0.15378116 -0.16484784 0.11705856 -0.43681508 0.28530133 0.6104415 0.41342506 0.7108497 0.14785036 0.37191364 0.1923859 0.42215645 -0.3463122 -0.47363275 0.06578826 0.115682654 -0.47879758 0.098287284 0.42475742
お姉さん 0.23815563 0.32941216 0.058961477 -0.30518794 -0.15286231 0.037576534 0.027913814 -0.34020174 0.5779988 -0.029667387 -0.02314427 0.109283105 -0.39774525 0.40613037 0.26670948 0.32983512 -0.3245199 0.08965069 -0.11720076 0.19816576 -0.023417043 0.14982924 0.057469808 0.14719717 -0.14821167 -0.081361644 0.16869846 -0.39499354 -0.118391044 -0.055389762 -0.4263344 -0.11473702 0.36706346 0.22331838 -0.17352366 -0.28154272 -0.069668695 -0.021752257 0.23078597 0.411399 0.04097312 0.28880006 -0.48230526 0.023759237 -0.3907987 -0.060611133 -0.24322952 0.22974658 0.24543403 -0.25347206 -0.2894005 0.07536925 -0.015192268 0.28858957 -0.13465774 -0.39991885 -0.04360962 -0.58679396 0.07719424 -0.6538971 0.21770734 -0.41943124 -0.017799005 -0.101373576 -0.10083486 -0.12830111 0.31523636 0.05771385 -0.025062602 0.17128257 0.017838761 0.40485743 0.115953356 0.10260806 0.051349003 0.26204666 -0.60862166 0.45314848 0.059495524 0.016480606 -0.09961606 -0.1454707 -0.26185593 0.053575695 0.1544817 -0.042892165 -0.0020857905 0.007928323 0.21061297 0.0324607 -0.24912354 0.040638383 0.26667687 -0.37817904 -0.24341373 0.17126574 0.029897733 0.03913351 0.58783835 -0.050090034
ロリ 0.19535157 -0.05055657 -0.15351161 -0.10820596 0.16333805 0.117841735 0.10801553 0.16155785 0.03136165 -0.22184655 -0.31951374 -0.1313057 0.11702553 0.3730807 0.1763496 0.011933227 -0.3188335 -0.23914935 0.0016373624 0.051644947 0.04538014 -0.17525831 -0.3109648 -0.12592855 -0.05686751 0.0010332507 -0.13785315 0.028872704 -0.045744818 0.27505326 -0.24474673 -0.016240308 -0.08387319 -0.034988206 -0.15575208 0.23181626 0.020316416 0.11446983 0.10045658 -0.38514468 -0.16994627 -0.038133424 -0.270542 -0.17664468 -0.20717496 -0.18238698 -0.0916867 0.02348163 0.26655206 -0.14728782 0.0980849 0.096939206 -0.25184357 0.08307091 0.05707926 -0.05421963 0.28057298 -0.020161353 0.08317205 -0.48883325 -0.037552126 0.09737762 0.052063905 -0.13672237 -0.1921584 0.14828363 -0.105409585 0.17812037 0.4040643 0.24728468 -0.55031633 -0.24345763 0.60771954 0.09641742 0.0058702026 -0.34759185 0.15204926 -0.03912478 0.18121977 0.0043436284 0.26945052 -0.049020797 0.21940416 0.12890448 -0.3654149 -0.112037964 0.086792156 0.081946105 0.06879918 -0.25595635 0.21949928 0.06532537 0.30480963 -0.028995126 -0.40714878 0.24573418 0.39502653 -0.1958743 -0.27510062 -0.19428708
逆レイプ 0.64258724 -0.28474516 0.44277033 0.34404165 -0.0597859 0.44215575 -0.15925075 -0.117805675 0.32410693 0.8467404 0.0156249255 0.0071733347 -0.04831366 -0.10662242 0.027952012 0.38916323 -0.3411302 -0.15158273 -0.46550924 -0.4605573 -0.7329903 0.7669138 0.13420424 -0.4677362 0.14734244 -0.13223214 0.11181282 -0.32529745 -0.044083994 0.539131 0.04599564 0.54932994 1.0697159 0.27849913 0.7115696 0.15153721 -0.22346082 -0.15828332 0.0034049472 -0.58423287 0.13309133 0.31223908 -0.37630248 -0.015042566 -0.10765026 0.2824485 0.167725 0.45698264 -0.12972705 -0.4157691 -0.018803643 -0.53663397 -0.11861555 -0.22829704 -0.04461819 -1.142344 0.13952191 0.21129476 -0.2837909 0.019190878 -0.011618968 -0.07370431 -0.29211393 0.061527163 -0.43244717 -0.3391801 -0.3300631 -0.15207942 0.10324427 0.3398328 -0.22499506 0.14307927 0.34039742 -0.4369475 -0.10896573 -0.29991022 -0.08728263 0.021023799 0.106258005 -0.30143845 -0.15186667 0.0036816793 -0.35476947 0.015389619 0.20723198 0.1677459 0.346601 -0.077132635 0.25669846 0.3351212 -0.54773366 0.67111313 0.528661 -0.574597 -0.32848808 -1.0436277 -0.074627444 -0.4475249 -0.041013118 0.17225763
マニアック/変態 -0.014519235 -0.68213224 0.08624678 -0.43330926 -0.25716284 0.089486234 -0.40101594 0.17881645 0.71856755 0.084430076 -0.861106 -0.4794743 0.08083869 0.45972705 -0.16889937 -0.11072512 -0.066445395 0.33000144 -0.38062966 0.13304552 -0.24902849 0.49627626 -0.30761924 0.08150018 0.0014116268 0.17927366 0.33251682 0.2897127 -0.38516366 -0.18993157 0.25680053 -0.15347718 -0.14900894 0.5755242 -0.41363797 0.41744587 -0.19587721 0.18324235 -0.20456162 -0.31351605 -0.3141524 0.48595795 0.077809 -0.044442255 -1.0995971 -0.3932406 0.65853393 0.28089195 -0.09267257 -0.051963884 -0.17744817 0.08975632 0.18900593 -0.39978382 -0.47101745 -0.2594785 0.22820786 0.13415727 0.03427079 -0.22207645 0.10566476 0.1343863 0.06367539 0.8694476 0.10248146 0.12920518 0.17176183 0.5221845 -0.11363363 -0.107268624 0.17898141 -0.022391263 0.46516475 -0.17023289 0.61858517 -0.01052976 0.12154136 -0.23299257 0.016904809 0.13665177 -0.61912763 -0.31473073 0.08942767 -0.18271881 0.381376 -0.2321001 -0.1551848 -0.6961376 0.30743766 0.14476028 -0.11502052 0.09499264 -0.23815118 -0.18006022 -0.32295766 -0.46691555 0.44079244 -0.08774692 0.3835929 -0.040986642
少女 -0.06066563 0.013377314 0.1299004 0.008125613 -0.05747347 -0.006695073 -0.2170624 0.04087389 0.21558945 -0.624865 0.01631401 -0.07801013 0.36047274 0.26574656 -0.06377449 -0.16153438 -0.41612187 -0.13774073 0.08219888 0.30362982 0.101241216 -0.046134323 -0.0727621 -0.13730049 0.108574316 0.1358646 -0.25482544 -0.10848739 -0.24979775 -0.03412717 -0.07697915 -0.16554523 -0.8008318 0.12370549 0.08258866 -0.024198188 0.4115279 0.07533413 -0.14614515 0.13202469 0.0004993079 -0.23604009 0.4318289 -0.22141202 -0.15215786 -0.10980117 -0.05168558 0.18926649 -0.0069788597 -0.077364236 0.1515055 0.044447094 -0.12043009 0.1181336 -0.38574925 0.02449557 -0.016523568 0.0576606 -0.16974989 -0.62394226 0.21117464 -0.4356147 0.17711495 -0.18459478 0.081327535 0.16074704 -0.1661667 0.14701325 0.25189596 0.30396894 -0.37466875 -0.08486049 0.34261099 0.50677353 0.29330665 -0.41770878 -0.0854135 -0.16542597 0.021499492 0.03457439 0.010767855 -0.12079114 0.22722143 -0.06272834 0.017721705 0.012040804 -0.0706308 -0.05198002 -0.044395674 -0.09368319 0.119700074 0.058393538 -0.09659764 -0.15340038 -0.10585902 0.38792783 0.28889334 -0.3797585 -0.06326995 0.007570705
ささやき 0.15719113 0.28180054 -0.2766727 -0.062065214 -0.07921983 0.19759181 0.27790868 0.14647327 -0.008021387 -0.020672906 0.123158745 0.07161787 -0.65646917 0.2983867 0.17162152 0.5582484 -0.2432742 -0.22539695 -0.3213432 0.30933544 -0.21898802 -0.16757388 -0.07746123 -0.30087706 0.025154728 -0.4344865 -0.00011022824 -0.8162658 -0.14920045 0.06881338 -0.21324724 0.40121576 0.44090605 0.07273836 0.5892509 -0.03650103 0.09663555 0.06939489 0.15727808 0.19126163 -0.017025547 0.32183498 -0.4907454 -0.3829387 -0.09152865 -0.2851157 0.29433805 0.43849686 0.23720555 -0.10805204 -0.111044995 -0.14936267 -0.7559866 -0.28668857 0.34647927 -0.300592 0.09066326 0.031553593 0.265022 -0.5249368 0.2997963 -0.41228724 -0.52413803 -0.43425274 -0.6330476 -0.45125505 -0.017816896 -0.24405955 0.31985274 -0.26517707 -0.26333365 0.29742345 -0.07003173 0.5419939 -0.10008102 0.02190187 0.25706798 -0.104622506 0.16741031 -0.069013186 0.54465616 -0.025439793 0.13377993 0.43122447 -0.15762039 0.45031482 0.26022336 0.34500045 0.31565517 0.23935989 0.037239723 0.10878777 0.47733226 0.0039317594 0.051389027 0.02233598 0.20574777 -0.43116504 0.42053407 -0.21985923
催眠音声 -0.43962032 -0.14570455 0.24830933 -0.36227518 0.089598686 0.005115164 -0.01470141 -0.014824426 0.29247916 0.030206814 -0.060182415 -0.22799332 0.03136576 0.33019274 0.14223042 -0.49310502 0.065475605 -0.28588867 0.067182265 0.385679 -0.07000238 -0.00087190885 -0.54708153 -0.07018449 0.36641818 0.2709682 0.057866294 -0.2937727 0.06134776 0.09407576 0.3949636 0.1473637 -0.19819804 0.2786346 0.15306944 -0.12940434 -0.10390918 0.10805686 0.076310866 -0.27858615 -0.668454 0.5004941 -0.32099962 -0.2958368 -0.091633864 -0.11740732 -0.10155734 -0.52038246 0.054503474 0.38523614 0.032925896 -0.18228759 0.11803981 0.060771544 -0.005949072 0.19217648 0.38162556 -0.37684327 0.26158163 -0.060579613 0.79758465 -0.38056862 0.34151408 0.29810357 0.22662823 0.35511145 0.20210716 -0.114350416 -0.16381751 0.6074792 0.014619225 -0.36611542 0.8415876 0.019988379 -0.36306816 -0.1807782 0.61580837 0.015127451 -0.068110004 0.36464995 0.1450745 -0.71731466 -0.016824357 -0.2906351 -0.14792635 -0.1836919 0.10764219 -0.07860006 0.37960252 -0.031273194 0.124384224 -0.21673708 0.60148716 0.3771027 -0.5808912 0.18501084 0.6143549 -0.31973144 0.42259744 -0.15532851
調教 0.3586375 -0.996513 0.65222496 0.068681195 -0.044942286 0.2741968 -0.24620351 -0.070729494 0.6565118 0.89601016 -0.076100215 0.06743354 0.1917448 -0.07798028 -0.58184785 0.17411686 -0.5475522 -0.22775052 -0.30414864 -0.17334239 -0.5961959 1.1896253 0.06368325 -0.44552693 0.08774353 0.08084361 0.09988515 0.05223915 -0.12109252 0.3904196 0.48596475 0.6018238 0.8055263 0.39604723 0.34483907 0.5647422 -0.6311121 -0.09033045 -0.38286445 -0.8666193 -0.048353944 0.28941238 -0.21540524 -0.08757003 -0.098292165 0.047211986 0.16478562 0.20591936 -0.32272992 -0.06889885 -0.32273504 -0.44007486 -0.42506865 -0.5955366 -0.3370819 -0.90910774 0.20175816 0.7839747 -0.34503394 0.12016258 0.21615931 0.44335744 -0.25227407 0.28483537 -0.2782146 -0.12114891 -0.50265956 0.3759862 0.50712264 0.48858786 -0.037491627 0.18029357 0.43306264 -0.46845534 0.2933145 -0.0302657 0.16867797 -0.19778597 0.101809554 -0.25242108 -0.25949782 -0.3989773 -0.2916758 -0.056317087 0.24508703 -0.09945645 0.12234763 -0.79467374 0.39891878 0.5627832 -0.45367295 0.85385925 0.2928456 -0.5473945 -0.38729256 -0.8868537 0.33600527 -0.041644573 -0.03824808 0.48784447
妹 -0.19069941 0.10801939 0.07883776 0.13142715 -0.47874004 0.05868054 -0.11089339 0.21481739 0.4161584 -0.14004563 -0.14894421 -0.21220492 -0.32846412 0.029852603 -0.04674611 -0.12240004 -0.5300074 -0.14860316 0.028185075 0.2466655 0.104460046 -0.33392718 0.3125922 -0.30101335 0.0790971 0.07966758 0.011402199 -0.18047945 -0.23436007 0.1617148 -0.5303978 0.14990953 -0.23760897 -0.116501056 -0.19058728 0.2196254 0.32544082 -0.2503103 -0.15806745 0.3155201 0.45996556 0.01959725 0.18898062 0.03373692 0.05007159 0.23645367 0.04485769 0.33899698 0.031334873 -0.34455612 -0.3425827 0.1350823 -0.18684813 0.21120407 -0.3406 0.05394952 0.08218114 -0.41197425 -0.36512548 -0.57894963 0.55227536 -0.36344367 0.11635064 -0.14921483 -0.28566262 0.18081172 -0.5418256 -0.24271335 0.5303495 0.104466304 -0.3925234 -0.28655633 0.4498784 0.17567666 0.49214855 -0.20828028 -0.1649734 0.04696512 0.2904884 -0.31527728 0.11842534 0.23468481 0.0990003 0.10036654 0.057034485 -0.007036385 -0.047135063 -0.11622547 0.30848786 0.045140464 0.25903836 -0.076348186 -0.095178165 -0.20822723 -0.10178461 0.47154644 0.15329683 0.2766695 0.39973065 0.06539803
フェチ -0.23236416 -0.24983218 -0.1682348 -0.49961182 -0.42567414 -0.4516452 -0.03979438 -0.111823246 0.55506 -0.16190174 0.014732822 -0.16102208 0.07721991 -0.04672646 0.06455037 -0.34406707 0.17538345 0.6495749 -0.10902583 0.22443813 -0.01492731 0.38879162 -0.5902593 0.0699857 -0.2516953 -0.09916607 0.29525143 0.013537171 -0.38144276 -0.09435338 -0.55225825 0.12385866 -0.1057851 0.2773105 -0.32246396 0.28919956 -0.5100605 0.39562252 0.07467565 -0.52909666 -0.8842759 -0.29706085 0.13727804 -0.21561687 -0.74221796 -0.26384038 0.29149508 0.3936108 0.4839835 0.29700607 0.008616229 -0.029195726 0.14927663 -0.07245605 -0.41724086 0.061496217 0.05801592 -0.20691724 -0.30081582 -0.5149248 0.26844087 -0.15119018 0.39679065 0.32090902 0.32924417 0.107804954 -0.3250098 0.7624228 0.31559184 -0.21637914 -0.48726502 0.31138283 0.54236436 0.24720168 0.55054915 0.3120516 -0.011004073 -0.06217935 0.006963684 0.20727062 0.090130016 -0.20617227 -0.15326649 0.07158445 0.019020265 -0.2197687 -0.07714213 -0.4636139 0.24172015 -0.21279706 -0.038022824 0.026027435 -0.19961232 0.079071805 -0.51186234 0.13305849 0.29407418 0.02877291 0.4727808 0.19136006
学校/学園 0.65050817 -0.26532564 -0.11126895 0.44002697 -0.012058989 -0.37697795 -0.52876604 -0.056118842 0.3878701 0.088335685 -0.08937986 0.045410745 0.5105735 -0.23774217 -0.14976119 0.781184 -0.23742804 -0.32682613 -0.32990047 0.08244823 0.26349056 0.625315 0.17694458 -0.10132799 0.50207055 -0.17102063 -0.3956968 -0.19750217 -0.25864086 -0.30845898 -0.03999251 0.20594995 -0.46036106 0.1450202 0.5327808 0.50724924 0.45615524 0.4032374 -0.1970096 0.5342865 0.18381976 -0.6234253 0.6625228 -0.17372963 -0.3556273 -0.13402134 -0.28754652 0.6109583 -0.30692253 -0.25043058 -0.2537338 -0.3029814 -0.14071454 0.15740442 -0.48431325 -0.48247552 -0.89226407 0.2523059 -0.15999985 -0.83912116 0.34359545 -0.69560885 0.12269827 -0.3087127 -0.011912711 -0.48848295 -0.7260348 0.084633425 0.011087542 -0.2359669 -0.7807828 0.37747458 0.26149872 0.36617798 0.5500333 -0.038355153 -0.22534512 -0.4316204 0.019751756 -0.40087426 -0.53287524 0.09188432 -0.18427855 -0.2855006 0.065622784 0.5961507 -0.070182875 -0.4522235 0.4285585 0.11437564 -0.17742498 0.35607734 0.013879833 -0.51609856 -0.058089368 -0.21923411 0.473643 -0.4988412 -0.23631701 -0.13087475
日常/生活 -0.6603605 0.03931694 -0.52224606 -0.3994734 -0.1585276 -0.48163143 -0.31741285 -0.019331092 0.02173381 -0.59530514 0.020144133 -0.26994658 -0.35658872 0.34672984 -0.53598166 -0.5310136 -0.6370556 0.43413815 -0.19681732 0.64565796 0.14968362 -0.32533062 -0.026470453 0.13096356 0.23743111 -0.018192507 -0.40359423 0.05257119 -0.22470142 0.10914912 -0.010421024 0.17734346 -0.12792186 -0.23810217 -0.0812328 -0.05171377 0.37091258 -0.08870785 -0.3265514 0.62997955 0.16807236 -0.18598056 -0.08499578 0.024328852 -0.29534525 -0.32543755 -0.40458784 -0.3171842 0.1290316 -0.36217287 -0.13314669 0.36201978 -0.24376364 0.117428325 -0.21928483 0.22121039 -0.44304037 -0.17433043 0.22001629 -0.6141286 0.61505616 -0.25853127 -0.35421464 -0.23782444 -0.19015492 0.24936047 0.13411996 -0.050894283 0.22665851 0.22903985 -0.15250008 0.50178236 -0.11042645 0.47676215 0.20362519 -0.11958219 0.09274297 0.078766696 0.030903116 0.09800813 0.046699878 -0.19594061 0.39499056 -0.008260692 0.15656216 0.07042222 -0.4170305 -0.10723145 0.57099485 0.030871097 -0.06332373 0.09478067 -0.16771717 0.051811673 0.19453847 0.70086086 0.08151415 0.20332572 0.43678784 0.12365774
焦らし 0.23761424 0.07365632 0.11015052 0.14882642 -0.10222647 0.326549 0.07440672 0.30584198 0.2758849 0.71355176 -0.15959303 0.37833464 -0.15115568 -0.16955432 -0.07342689 0.048088133 -0.06699608 -0.3800822 -0.16690889 0.052753218 -0.50894856 0.36114305 -0.06183352 -0.604548 -0.08416658 -0.50378263 0.097133204 -0.42797923 0.06755271 0.3549631 -0.04789353 0.65717965 0.8175594 0.20473687 0.13219967 0.3522643 -0.24703689 0.01209997 -0.14365104 -0.28808054 0.031850055 0.57014775 -0.59471905 0.057567675 -0.1182411 0.036815528 0.30889136 0.48030207 0.11305191 -0.07566404 -0.28113687 -0.44257462 -0.5894124 -0.27338433 0.16722824 -0.8283798 0.39573842 -0.09763441 -0.29388607 0.004682019 0.28442794 -0.31652692 -0.48669702 -0.23252344 -0.4845458 -0.20635675 -0.20962456 -0.16124803 0.0007077002 0.26756373 -0.06300234 0.18544248 0.3631719 -0.16712882 0.08780151 -0.11597891 0.07750459 0.04053485 -0.27900702 -0.3725446 -0.25097424 -0.1862569 -0.44267455 -0.24745479 0.20982875 0.17129853 0.1893173 -0.26829362 0.36119625 0.46953014 -0.16070397 0.6672765 0.33780473 -0.28090325 -0.3235197 -0.29764634 -0.08628397 -0.52256656 0.36170328 0.35164788
連続絶頂 -0.3528821 -0.46756998 0.25085595 -0.27967867 -0.22983916 -0.38163185 -0.36558878 -0.31045535 0.7445634 -0.011908322 -0.39811414 -0.5853576 -0.105581395 0.16151679 0.18344972 -0.4530466 0.16984044 0.09825623 -0.20746553 0.16031705 -0.16001637 0.12911071 -0.43469703 -0.0046417695 0.12373954 0.22100107 0.40472943 0.058555655 -0.30146754 0.14667735 0.0047886204 0.35939297 0.24985439 -0.23726447 -0.418631 0.010939409 -0.43763182 0.15722467 0.36859664 -0.40887272 -0.6876704 0.49345344 0.06750002 -0.25522408 -0.69796664 0.1539736 0.6289609 -0.026058579 0.2644436 0.0179288 -0.021780234 -0.34430286 0.3534145 -0.017083267 -0.17679128 -0.38053656 0.6086553 -0.5199129 0.15785417 -0.05004569 -0.09593059 0.13647912 -0.067748144 0.5733941 -0.0023069591 0.22574286 0.3370423 0.03887501 -0.29036185 0.23826563 0.48218206 0.40127984 0.3401143 -0.20354718 0.61193675 -0.29678246 0.5076385 0.20811653 -0.17012304 0.12771861 -0.43542793 -0.3685704 -0.15825129 -0.15307336 0.585033 -0.22571743 -0.12015988 -0.14828372 0.32384437 -0.058636583 -0.030280214 -0.25963917 -0.2854931 0.48978814 -0.26253623 0.06877445 0.23122038 0.2564635 0.6662593 0.2028548
パイズリ 0.40383074 0.673818 -0.25940058 -0.1631082 -0.17473121 0.0919944 0.098119795 0.008347061 0.11667878 0.044358384 0.20740388 0.24463455 -0.16661397 0.48955148 0.15882689 0.2524783 -0.4963418 0.5374409 0.042311754 -0.21636282 -0.29040146 0.24241675 0.13931917 -0.59484017 -0.08680244 -0.73202014 -0.34349918 -0.3075751 -0.13459222 0.5728585 -0.71102715 0.21677746 0.55951077 0.024236321 0.09399343 0.25620145 -0.28523418 -0.27820852 0.23813725 -0.022950644 0.13948476 0.43554714 -0.45358926 0.061277762 -0.06494165 0.14364718 0.037902515 0.48492432 0.38300046 -0.21507448 0.041511353 0.13852 -0.17429893 -0.020839334 0.3667638 -0.07204247 0.55571055 -0.37175232 0.09149696 -0.72171634 -0.33563814 -0.4027743 -0.39925182 -0.39101076 -0.09207055 -0.048005983 0.7074491 -0.15378779 0.045200597 -0.20151246 -0.25703698 0.18519667 -0.31795692 0.46268222 -0.0065218853 0.23937583 -0.5622869 0.13367338 0.08650283 -0.23839569 -0.052898552 0.75667197 -0.15804446 0.104017206 -0.29791486 0.46845126 0.5787489 0.37499675 0.4048771 0.19203927 -0.37693566 -0.26217738 0.77981895 -0.37622896 -0.18353254 -0.10272836 -0.35860032 -0.093775734 0.26503164 0.35822502
羞恥/恥辱 0.62574077 -0.91823435 0.4804715 0.46318805 -0.14977393 0.046383806 -0.20304848 -0.13518664 0.468152 0.7354967 0.080816224 0.04037156 0.61454314 -0.51286256 -0.18272647 0.26728895 -0.4638169 -0.134734 -0.5761973 0.16282673 -0.47409812 0.71115375 0.23060405 -0.6675621 0.3144243 -0.1705328 0.09297965 -0.12505351 0.038959205 0.28845814 0.10887909 0.79984695 0.914299 0.28595227 -0.020508267 0.49148893 -0.31340775 0.16706952 -0.24538092 -0.3875459 -0.09741475 0.02157252 -0.33589077 -0.006064561 -0.31894433 -0.011151652 -0.10871354 0.11202792 -0.25213826 -0.31835654 -0.22326542 -0.05019897 -0.26903167 -0.13353883 -0.2149921 -0.8343259 -0.061528556 0.42359483 -0.29956517 -0.03328033 0.19344752 0.028568218 -0.24127448 0.1170298 -0.18414976 -0.1776836 -0.71741956 0.2788973 0.2223975 0.7009888 -0.07012272 0.37365416 0.41564018 -0.7078632 0.10200354 -0.18276499 0.1712357 0.09630778 -0.18201584 -0.43987682 -0.30336493 -0.49765328 -0.53655124 -0.22499216 0.077810906 -0.09198559 0.11872233 -0.50889033 0.2944001 0.1908811 -0.4118885 0.6359767 -0.04937168 -0.085546434 -0.14157474 -0.6650322 0.44116575 0.0043283026 -0.016857628 0.33300805
巨乳/爆乳 0.44796193 0.40979117 0.012608489 0.002468749 0.008427381 0.1050674 0.2730826 -0.08974917 -0.22606227 -0.019037869 0.43632054 0.15585713 -0.052258797 0.22475496 0.19759545 0.44004306 -0.7607633 0.01636496 -0.47113562 0.19270954 -0.28169814 0.19716689 0.52224386 -0.79696935 0.09665066 -0.47186723 0.019565288 -0.66055167 0.015521009 0.5767664 -0.6584884 0.6179585 0.8746446 -0.0881077 0.16725409 0.33057082 -0.14966407 0.009065901 0.19982184 0.321224 0.26506993 0.37482473 -0.81229174 0.087266326 -0.08953268 0.04531942 -0.17998071 0.52831036 0.03671967 -0.55935305 0.02380443 -0.16472541 -0.28100926 -0.10488254 0.48136756 -0.5298495 0.16504271 -0.035584133 0.09169963 -0.2969606 -0.20156875 -0.42206803 -0.55215245 -0.5511313 -0.38905564 -0.09767662 0.272466 -0.48610523 0.013973148 0.067779936 0.2614209 0.29291973 -0.35439342 0.004936927 0.09777855 -0.03823018 -0.29902887 0.15721639 -0.22021686 -0.39708337 0.12067488 0.3401892 -0.25089827 0.29053244 -0.28373742 0.34672737 0.5261663 0.3606629 0.056820124 0.12991877 -0.38114852 -0.1908431 0.6825586 0.04397382 -0.07909836 -0.23342907 -0.22601135 -0.08326762 0.08529692 -0.01390084
おっぱい -0.113814436 0.13346021 -0.3083379 -0.42101935 -0.34472546 -0.14849529 0.15564391 0.009146392 0.34780148 -0.12282868 -0.05228372 -0.18116349 -0.46289083 0.48483735 0.0037259695 0.2240958 -0.35306346 0.36275315 0.09401064 0.41538888 -0.14140196 0.16496529 -0.24700114 0.124287196 0.07838816 -0.015428834 0.11672644 -0.51617306 -0.23135698 0.03560095 -0.57094574 -0.19627967 -0.098826274 0.3268495 -0.25943008 -0.18113025 -0.46032456 0.10724592 0.2355785 -0.03226053 -0.2908871 0.53303146 -0.40827504 -0.05609548 -0.62972116 -0.30542165 0.18283108 0.5177612 0.39728174 -0.23692764 -0.008853383 0.10657419 -0.08863598 0.124421015 0.3806947 0.01843509 0.3883292 -0.25985232 0.27507162 -0.701285 0.020292513 -0.28707764 -0.07252538 -0.010202523 0.06599386 0.09576199 0.30383393 0.18022044 -0.04537529 -0.14451781 0.14784493 0.049337868 0.088551365 0.17323643 0.3175353 0.36978436 -0.40213245 0.268455 0.004456924 0.033357725 -0.01442364 0.35238054 -0.10864953 0.44342756 -0.3068962 -0.08440142 0.13374223 0.1434011 0.4334644 -0.06482851 -0.16161528 -0.59321964 0.4869577 -0.118054956 -0.2170964 0.22665417 0.06931493 0.018983368 0.7221431 -0.04074703
催眠 0.118651755 -0.26573637 0.355053 0.20203795 0.48142675 0.36747977 -0.01745634 -0.41892442 0.028329596 0.1615288 -0.13360447 -0.038719356 0.31096414 -0.14946309 -0.07201202 0.026442045 -0.31209627 -0.39892972 -0.07800021 0.022734985 0.08077394 0.21762414 0.052399483 -0.5819347 0.15132998 0.053310014 0.016009428 -0.13333097 0.14254934 0.29115096 0.42101303 0.47991523 0.4120992 -0.11350288 0.2269504 0.13608688 -0.08764695 0.058129176 0.038035713 -0.20261621 -0.20964512 0.61359036 -0.35821065 -0.38829204 0.025130197 0.39522448 -0.1297703 -0.39365277 0.109388135 -0.057173382 0.14175697 -0.46363014 -0.026909558 0.066403426 -0.15998419 -0.6110006 0.47747695 -0.18823221 -0.13337351 0.13243057 0.15024686 0.11815558 -0.16111119 -0.32879594 -0.30381748 0.07217564 -0.101297565 -0.27288422 0.03220997 0.7638795 0.31617546 0.057861444 0.45399848 -0.14440358 -0.031192321 -0.59891444 0.19203268 -0.21264018 -0.28034344 -0.28655884 0.007682422 -0.42456207 -0.08235599 -0.26924595 0.038373064 0.048857506 -0.14605546 0.120688304 0.041341387 0.044835493 -0.15681086 0.5527313 0.09560049 -0.0205934 -0.53981566 0.203066 0.4544447 -0.07390122 -0.04923535 0.4179442
メイド 0.13125148 0.30648562 -0.10406562 -0.3615692 -0.03350658 0.2339369 0.008681286 -0.021087816 0.06931905 0.10379594 -0.11610731 0.13135636 -0.32191768 0.10940436 0.16185573 -0.025612101 0.047015715 0.124610774 -0.07931415 0.31121638 -0.012466534 0.07856214 -0.00026361432 -0.4184442 -0.1477661 -0.2848462 0.101277076 -0.18367453 -0.04757548 0.08541132 -0.4054435 0.33701655 0.16182446 0.09188587 0.06939939 0.12571892 -0.02354976 -0.16490093 0.06478654 -0.11256536 -0.17376593 0.033431638 -0.12680976 -0.09230529 -0.27516636 -0.12889764 0.34541628 0.36431465 0.47156063 0.05871488 -0.35822296 -0.17752093 0.082310036 0.0074926764 -0.11622207 -0.19661784 0.07727463 -0.50572455 -0.1753694 -0.640995 0.327119 -0.11141927 0.16051805 -0.19578724 -0.3517184 0.06364043 -0.25889745 -0.16283143 0.16050598 -0.2381978 -0.1976757 0.05894305 0.34829515 0.15083219 0.07731718 0.11898308 -0.19742036 -0.17186426 0.18669479 -0.13162515 0.34484732 -0.15888081 0.027068518 0.19827114 -0.08217496 0.058005057 0.06076336 -0.027205583 0.14110585 0.06492537 0.2410916 0.3966668 -0.0873009 -0.5036758 -0.5716144 0.17697869 0.17977506 -0.046436176 0.07732452 0.21926071
ファンタジー -0.17697448 0.4875281 0.16351397 -0.059897702 0.47159487 0.047546502 -0.29487228 -0.65975094 0.3615279 -0.58100706 0.40293598 -0.02020876 0.062930614 0.8609772 0.26147792 -0.4680481 -0.4770563 -0.22314735 0.0031351564 0.041836135 0.19117823 0.3077205 0.3750556 -0.0866405 0.18230247 0.04200452 -0.26452512 -0.18142344 0.09875392 0.27710187 0.057927668 0.1690563 0.11534245 -0.33640596 0.1565466 -0.21451342 0.38780004 -0.2773144 0.29974195 0.00025353208 0.2276268 0.08379531 0.1451265 0.079560235 0.22517915 0.10545222 -0.6575361 -0.37403557 -0.028856343 -0.09719518 0.38319808 -0.23298408 0.21364643 0.4643655 -0.03412315 -0.27629635 0.17180079 -0.33063075 0.086465225 -0.32454354 -0.24763517 0.015074273 0.1156736 -0.04470901 -0.2487489 0.39808333 0.44365808 -0.041429006 0.049473964 0.6427917 0.04139761 0.110836424 0.31546372 -0.068615064 -0.06901795 -0.71109676 -0.17204084 0.084562466 0.20520261 0.04315098 0.25916 -0.16747402 0.109085836 -0.21500139 0.07848699 -0.3444482 0.22694626 0.44663274 -0.10503831 -0.20222549 0.25331184 0.05028235 0.40367326 -0.07547773 -0.73015577 0.032449763 -0.18182248 -0.32309133 -0.40987056 -0.31329113
女性視点 -0.23382021 -0.22884686 -0.19644919 -0.31881753 -0.18197328 -0.5301176 -0.5974395 -0.04459399 0.5750181 -0.083598174 -0.40255436 -0.47257736 0.14189176 0.5429846 -0.07341515 -0.071153514 -0.40524974 0.22805093 -0.41281882 0.22658151 0.22609608 -0.016814973 -0.026844595 0.24835598 0.13356738 0.18968265 0.29855388 0.35749832 -0.1473768 -0.050573897 -0.060491197 0.009201201 -0.2591912 0.19092864 -0.71466845 0.28116015 -0.1311163 0.16357785 -0.026266858 0.16082592 -0.22173293 0.3976937 0.04255288 -0.22755148 -0.46220097 -0.20515388 -0.11218029 -0.030887878 -0.13250016 -0.40066466 -0.2608212 0.29014483 0.14707208 0.31935608 -0.45613486 0.10230447 0.28003183 -0.17129676 0.18466108 -0.71826464 0.18026428 -0.14788131 -0.18639955 0.28527206 0.20393822 0.67669535 0.19454937 0.29508504 -0.045431856 0.062070817 -0.06720928 0.10825867 0.48088458 -0.075086035 0.5668148 -0.073757686 0.09640236 0.23405196 0.22331764 0.10250087 -0.4356786 0.020740716 0.095748745 -0.03374934 0.19487171 -0.3129239 -0.24254215 -0.5476325 0.2975648 -0.2773811 -0.11424701 -0.59723526 0.10150772 0.3131821 -0.012729504 0.15238585 0.335573 0.6980189 0.6679298 -0.11036455
強制/無理矢理 0.22580223 -0.42029193 0.38037097 0.06117179 0.12884754 -0.06664281 -0.26434606 -0.182971 0.15111017 0.67122465 -0.25955126 -0.16897486 0.17738642 -0.07799151 -0.08346597 -0.118480235 -0.26223657 -0.17141986 -0.63457423 -0.47978452 -0.33213913 0.43467027 0.4040719 -0.65107834 0.2480413 0.032977726 0.017696233 0.27063328 -0.2585077 0.86820006 0.09121057 0.91501015 0.9641132 -0.1714424 0.4647752 0.9459291 -0.1222166 -0.17525665 -0.021188479 -0.42514062 0.14599302 0.20337795 -0.16896197 -0.065911636 -0.22015248 0.43618378 -0.14016193 0.24569686 -0.4217747 -0.47493356 -0.13730021 -0.5707719 0.26012507 -0.27240106 -0.13711801 -0.88730633 -0.22122365 0.071162865 -0.25190368 0.16753668 -0.12439213 0.0012286307 -0.33750534 0.26011333 -0.13702223 -0.05587967 -0.022507591 -0.13583656 0.074081264 0.25555265 0.04646168 0.19184802 0.3547497 -0.5443779 0.49831638 -0.5138968 0.27879018 -0.10218812 -0.0028126978 -0.54921055 -0.48806 -0.035826746 -0.15283301 -0.06131639 0.398574 0.1821107 0.18274704 -0.11688397 0.14496683 0.1387013 -0.24869493 0.5378827 0.39109683 -0.18529005 -0.23276334 -0.8063631 -0.038395107 -0.08301855 -0.53649586 0.23976101
恋人同士 -0.68936765 0.18972972 -0.21459132 -0.8166885 -0.45351502 -0.80597645 -0.09380207 -0.01665576 0.2429659 -0.22051428 -0.47350785 -0.030328695 -0.619016 -0.005357104 -0.05637575 -0.35169062 0.0016423301 -0.11086191 -0.45349026 0.07025704 -0.09967443 -0.19639674 -0.102828376 -0.20598446 0.44489953 -0.17574595 -0.17508884 0.14645879 -0.41179597 0.0063002473 -0.68178266 0.59826 0.1448499 -0.38233483 0.14007582 0.524327 0.048739076 -0.11162517 0.15861465 0.6643996 -0.064482436 -0.6093875 0.0702166 -0.16346166 -0.56589913 -0.28797835 0.09636857 0.20056981 0.5224316 -0.0015043488 -0.667735 0.0069102193 0.5144315 -0.09679934 -0.27303794 0.025080621 -0.7647204 -0.84693027 0.21861823 -0.7819898 0.8610102 -0.5017582 -0.33903232 -0.22729084 0.10114233 -0.3883267 0.048793487 -0.4279962 0.26839 -0.2474569 -0.4914025 0.67307454 -0.040910415 0.4425314 0.50092065 0.14823051 0.11479861 0.33065298 -0.1993557 0.059262026 0.1280568 -0.41426018 0.07514385 -0.4013109 0.34878117 0.30242705 -0.058501005 -0.246124 0.6831592 0.2226546 0.28494355 0.43896142 -0.55443996 -0.16713257 -0.093838885 0.40535864 -0.0379245 -0.11792861 0.46919674 0.03472287
ほのぼの -0.3955757 0.21105562 -0.24083422 -0.08037818 -0.11360587 -0.22539562 -0.044036902 -0.05001194 0.044194292 -0.8062511 0.20552914 -0.14646755 -0.08275883 0.63043797 -0.2024796 -0.13840112 -0.48059297 -0.10184598 0.3604485 0.87049055 0.19705093 -0.45769498 -0.094951935 -0.092764884 0.5049967 -0.060792446 -0.6716625 -0.40606856 -0.087015934 0.23711146 -0.041188348 0.05533791 -0.5676485 -0.16596648 0.28563648 -0.31088442 0.68522173 -0.2023545 0.107802145 0.7349556 0.1875746 -0.15713274 -0.03823234 -0.113534965 -0.013183641 -0.357625 -0.59085596 -0.45727518 0.1336457 0.0071515176 -0.09501271 0.43356922 -0.27828407 0.45408157 -0.09489809 0.3067802 -0.20089836 -0.33812544 0.2726275 -1.0574608 0.334381 -0.32518047 -0.24303943 -0.35880762 -0.2803113 -0.11510036 0.34148547 0.031236792 0.32249534 0.6211719 -0.38764212 0.42805925 0.035204746 0.8225531 -0.051056888 -0.34459817 -0.010544257 0.16339222 0.22428231 -0.01715428 0.48092297 -0.16037984 0.3823085 0.060187805 -0.3919634 0.046876747 -0.08364023 0.62418884 0.42933106 0.13610125 0.38093755 -0.15837471 -0.10226321 -0.031590294 0.18806453 1.1701354 0.05301785 -0.22627288 0.25880504 -0.068596825
SM 0.17502941 -0.73910946 0.20401496 0.26859474 -0.1699472 -0.01285968 -0.23129179 -0.128476 0.6009248 0.70272654 -0.42004475 -0.17761165 0.2164693 -0.16455224 0.16042753 -0.04376655 0.21803881 -0.17449586 -0.7029951 0.00043589043 -0.3845544 0.6012069 0.07705048 -0.16704662 0.10781599 0.13017991 0.35255653 -0.08820603 -0.24161404 0.26468575 -0.04887049 0.6023848 0.8865595 0.40719584 0.030363234 0.574348 -0.21308398 0.17631724 -0.11347587 -0.7633612 -0.10244456 0.1840762 -0.38219294 0.2789538 -0.7971289 -0.12757085 0.07738545 0.2772229 -0.2924871 -0.27734408 -0.2587264 -0.3541108 0.33336198 -0.29013255 -0.3522397 -1.0423554 0.066059045 0.27385047 -0.33675623 0.008210759 -0.036805347 0.34350562 0.074216485 0.5498274 -3.985025e-05 -0.1534037 -0.78087366 0.65649307 0.13649163 0.60399646 -0.04152193 0.3458651 0.8917398 -1.1126267 0.46103022 -0.25007635 -0.1465318 -0.24610965 -0.003102259 -0.5054205 -0.28114668 -0.3589068 -0.4646658 -0.10355634 0.2180522 -0.5207458 0.14755894 -0.6148124 0.20224786 0.07620432 -0.16926111 0.9648972 -0.11710449 -0.39278358 -0.5185442 -0.78739613 0.31631982 -0.41820115 -0.022299508 0.16990228
アナル 0.54786193 -0.05854367 0.46331042 0.17704195 0.21707475 0.22843014 -0.14599523 -0.008478089 -0.07883272 0.5119923 0.19314866 -0.24937527 0.3818369 0.01201176 0.15723485 0.097840674 -0.33166596 -0.02630013 -0.6773011 0.0029744946 -0.35848325 0.29197055 0.45176125 -0.89183056 -0.040778 -0.27189958 0.32356054 -0.08511717 0.04208057 0.6417302 0.024284497 0.7507426 0.967553 0.03899416 0.09575642 0.8152136 -0.12496615 0.070605166 0.1091132 -0.021131463 -0.059085608 0.3913486 -0.4946888 -0.19619201 -0.19225287 0.22626407 -0.05054902 0.2209034 -0.3179529 -0.3146964 -0.16147406 -0.22730497 -0.056101523 -0.16075847 -0.16225612 -0.50907195 0.10213901 0.023776677 -0.31089985 0.08796223 0.061418615 -0.47272494 -0.37003213 0.19462007 -0.30120477 0.24254654 0.19178611 -0.19263238 -0.05231695 0.4141701 0.21340847 0.22267754 0.30852002 -0.37129492 0.14686894 -0.2201412 0.16991574 0.18192749 0.09448616 -0.44169474 -0.24405426 -0.18241009 -0.3423393 -0.09218864 0.15358838 -0.05390277 0.35471678 -0.06695437 -0.02842878 -0.121436104 -0.4344319 0.026034752 0.23768382 0.12483522 -0.10660152 -0.5800642 -0.040766366 0.116180375 -0.10688315 0.10771156
近親相姦 0.2485912 -0.06412407 -0.15534651 -0.16579092 -0.22545616 -0.16718291 0.013008749 0.40374282 -0.5925171 0.2565623 -0.21394545 -0.21442148 0.048969727 0.09433732 -0.15864667 -0.040824793 -1.0754018 -0.083075054 -0.24192406 0.29228386 -0.4777815 -0.22283444 0.06821629 -0.72397083 0.18336995 -0.2095657 -0.36526012 0.12728637 -0.09873755 1.1658428 -0.77179676 0.677299 0.62195146 -0.5887447 -0.32497355 0.860106 -0.28290227 -0.3033106 -0.03138656 -0.030142855 0.25858796 0.48431054 -0.76643616 0.20911485 0.13393606 0.08394516 -0.2858623 0.2316272 -0.039712384 -0.6815015 -0.267905 0.64044565 -0.709508 -0.12125712 0.5858563 -0.1258121 0.25207362 -0.14384931 0.21587026 -0.66359967 0.27656564 -0.35935652 -0.68685925 -0.5091927 -0.41485453 0.35859337 0.11298061 -0.5256641 0.34580424 0.44578198 -0.04835733 0.15302476 -0.041685656 0.006090518 -0.1492508 -0.10191331 0.21340115 0.6879226 0.34429228 -0.48820436 -0.16157438 0.5856999 0.2226674 0.29846665 -0.2997179 0.26297474 0.2660639 0.23884216 0.7469977 -0.24361986 -0.33014098 -0.3887305 0.5464276 0.054238155 0.34441087 0.18347578 -0.06431168 0.42741427 -0.075137034 0.64723605
淫乱 0.28032604 -0.11492195 0.1616955 -0.015090143 0.019174457 -0.3141173 -0.18916745 -0.047554847 0.32226738 0.23532051 -0.06374769 -0.2583468 0.3484595 -0.0076642977 0.12052689 0.012550681 -0.46360633 0.031317126 -0.7125878 -0.21790116 -0.3646812 0.33455867 0.24181397 -0.3767101 0.07617176 -0.08231294 0.18359675 0.07172779 0.09739677 0.39108714 -0.28189796 0.5564031 0.90449846 -0.018776674 -0.13286833 0.74328303 -0.30582714 0.23169984 -0.013003498 0.044836584 -0.06110723 0.2049242 -0.40210927 0.080728844 -0.4020078 0.21931335 0.05294238 0.5705946 -0.20880814 -0.41759044 -0.059601657 -0.10893151 0.16294742 -0.13895646 0.028551668 -0.44980907 0.34388003 -0.024436088 -0.024529971 -0.1320577 -0.12055851 -0.23443525 -0.45044294 0.0012744521 0.042667355 0.33548766 0.2715067 -0.15609638 -0.069387086 0.17539369 -0.075241104 0.21349816 0.11241057 -0.25211513 0.4866372 -0.1266126 -0.03519013 0.26611292 -0.15639286 -0.32388523 -0.49526307 0.27638176 -0.39825818 -0.1807911 0.044657607 -0.01622035 0.3127174 -0.39965838 0.2869018 0.013509989 -0.43010023 -0.09264465 0.38556316 0.094298944 -0.13398892 -0.55170643 -0.05627156 0.2361819 0.28899217 0.2122724
逆転無し -0.05659236 -0.33387858 0.101730086 -0.03278056 -0.20992683 0.20891729 0.03126388 0.014739563 0.64344364 0.30256253 -0.19856088 -0.02694938 -0.27923408 0.27199733 -0.09481903 0.1934097 0.08052471 -0.2387286 -0.02808245 0.007899401 -0.4178124 0.65294904 -0.4294704 0.3608843 0.08804816 0.14703271 0.07726494 -0.500177 -0.0128698815 -0.11562942 0.18103041 -0.16750653 -0.04487879 0.6840165 0.21191396 -0.23239668 -0.45863715 0.18087235 0.05117541 -0.5378394 -0.3822977 0.45582008 -0.121847555 -0.09545709 -0.505297 -0.16819362 0.36940932 0.58746225 0.13519692 -0.12336394 0.027301244 -0.41985098 -0.15778267 -0.12746835 0.2305377 -0.65582 0.38604164 0.20247558 -0.002987817 -0.21992055 -0.02104547 -0.092885874 -0.012502329 0.2690183 -0.15186498 -0.120483205 -0.12662919 0.50150865 -0.11273456 0.0969397 -0.14576483 -0.052642602 0.44019708 -0.16096133 0.40532035 -0.056958072 -0.1786516 0.0019268908 -0.22579913 0.04519716 -0.23612973 0.018955337 -0.18958011 0.0668894 0.051844507 -0.239507 0.06514512 -0.22320446 0.46893823 0.08842327 -0.0720647 0.2787903 0.6056958 -0.42232016 -0.35665423 -0.41947746 0.1738851 -0.62618953 0.3131365 0.12826502
退廃/背徳/インモラル -0.12099384 -0.46014628 0.031118011 0.2524442 -0.27610308 -0.42801487 -0.5104594 -0.35063845 0.5058644 -0.05054362 -0.023789927 -0.37724924 -0.23407666 0.07245611 -0.18893044 0.06726272 -0.486196 -0.3353641 -0.18741865 -0.3935981 -0.2787357 0.23193967 -0.09675405 0.3771609 0.5246494 0.37482497 -0.38894343 -0.043016072 -0.08969302 0.37067142 -0.027197858 0.49349943 0.19806886 -0.2201397 0.42626426 -0.0076347813 -0.1932837 -0.028845228 0.07254293 -0.3750213 -0.029187776 0.18703635 0.14544341 0.048687704 0.14416091 0.58912605 -0.10085205 -0.008795741 -0.085330375 -0.48951688 0.280927 -0.16705607 -0.04820465 0.35135445 0.43431792 -0.52385914 0.2944374 -0.12869439 0.14674892 -0.04365486 -0.12077129 0.11103299 -0.24361023 0.043970402 -0.11920053 0.1283837 -0.000100967336 -0.17644477 -0.2868283 0.18447106 -0.16905722 -0.06400108 0.039599486 -0.19107677 0.50462663 -0.748247 0.44109502 0.32527483 -0.1526667 0.03071503 -0.69729143 0.58166426 0.054206908 0.017450746 0.24246384 0.11526848 0.03716178 0.020334156 0.8126909 -0.02227251 -0.15091133 -0.17443928 0.8321923 0.048083298 -0.1546666 -0.3779465 -0.036750767 0.017288053 0.061575394 0.08191394
感動 -0.44266483 -0.12784295 -0.5433526 -0.5424059 -0.13040808 -0.18267758 -0.61165226 -0.33391517 0.61483663 -1.0851091 -0.27413562 -0.47936505 -0.16477288 0.72206926 -0.38450444 -0.6588062 -0.4543925 0.55288726 0.79325914 0.9871507 0.2236743 -0.5224845 -0.84066 0.3323277 0.72675574 0.53502584 -0.75331795 -0.029183976 -0.3620502 -0.052170265 0.5635935 -0.33315772 -1.4213356 0.28584063 0.7062982 -0.90610385 0.52319217 -0.08915361 -0.19633724 -0.0086919665 -0.5032903 -0.18654789 0.41131714 -0.5830881 -0.7184382 0.13796484 -0.42705578 -0.5547221 0.67280596 0.38210654 0.0525039 -0.11540763 0.21989034 0.86912495 -0.6177332 0.3983062 -0.06345248 -1.0531441 0.11988016 -0.94954515 0.71665347 -0.24566416 0.7371144 0.12193235 -0.052519254 0.14496508 0.36997685 0.24883844 -0.16768448 0.552418 -0.45252964 -0.30834568 0.8645946 1.2257813 0.07329491 -0.79989153 0.56035906 -0.20352906 0.23954862 0.3275693 -0.121680595 -0.6125044 0.4618193 0.14334826 -0.056397997 0.00027336334 -0.6542387 0.5658713 0.55596656 0.073048264 0.3061591 0.0244294 0.16784821 -0.45864943 -0.7689753 1.7010266 0.6164478 -0.3228527 0.304217 -0.051795073
年上 -0.19552875 0.28510913 -0.2949768 -0.33020115 -0.20546691 -0.24554658 -0.0048631807 -0.07652419 0.4223728 -0.20093644 0.28379008 0.05593767 -0.2476417 0.5092451 -0.22953303 0.06656038 -0.4541919 0.42587665 0.291636 0.48312023 -0.12643924 0.22731519 -0.032659903 0.09684415 0.14698195 -0.21106236 -0.15567756 -0.46300414 0.027838992 -0.072440155 -0.30593982 -0.14740814 -0.18491983 0.20509563 -0.24819198 -0.22934839 -0.25554183 0.062195845 0.082185976 0.34440917 -0.02309191 0.3129771 -0.30825445 0.031655714 -0.38154817 -0.21874468 -0.21465214 0.23932618 0.2069854 -0.23168601 0.02351163 0.2021848 -0.23502548 0.26130816 0.14589809 0.096433155 0.2042765 -0.17269284 0.2416892 -0.83099896 0.25270933 -0.4968936 -0.26651266 -0.21354768 -0.002189321 0.15896207 0.49262002 0.058019683 -0.08475002 0.1631788 -0.018741611 0.18545362 -0.113670215 0.28725645 0.15952097 0.34605134 -0.6350348 0.40001178 -0.011416362 -0.010134955 -0.14608957 0.3083926 -0.1770125 0.056848757 -0.2753035 -0.12470248 0.052198753 -0.020291815 0.49694708 0.07956552 -0.30310723 -0.43734115 0.42363843 -0.15122552 -0.030582447 0.40228117 -0.104001395 -0.05152383 0.72127247 0.24345091
東方Project -0.29840097 0.12385325 -0.16978024 -0.31829765 0.009746749 -0.011416035 -0.16861784 -0.19124562 0.21106592 -0.60646975 0.0195313 -0.2090684 -0.069352835 0.66154087 0.0041878372 -0.31958404 -0.17233117 0.14339493 0.14748564 0.4286865 0.21711205 -0.078386575 -0.22114044 -0.010740088 0.06914923 0.023635296 -0.17970714 -0.1483717 -0.18846792 0.08234217 0.010244082 -0.04473677 -0.44470665 0.055933304 0.18823314 -0.13940214 0.33759364 -0.10310314 -0.0023846494 0.0025870716 -0.10235218 -0.053564344 0.12799668 -0.11971522 -0.2402478 -0.21879181 -0.15766777 -0.2396961 0.19859599 0.2030794 0.006882285 0.05304608 0.10995961 0.17532036 -0.19256261 0.10379852 0.008937749 -0.24857907 0.08561415 -0.5118711 0.19556886 -0.07051239 0.26647398 0.056644596 -0.038254656 0.06592237 0.11395897 0.2243688 0.15467335 0.23754634 -0.16303065 0.077950284 0.34831786 0.35603365 0.022418775 -0.24418552 0.06390032 -0.18372299 0.17005198 0.17915906 0.21070899 -0.25095004 0.23571236 0.05545343 -0.029535668 -0.15540102 -0.006806459 0.22201139 0.08483628 -0.04025075 0.19920751 0.022532344 0.010048338 -0.1027925 -0.41518098 0.4974467 0.18064198 -0.293107 0.024394222 -0.19097584
制服 0.6758172 -0.4483643 -0.31325185 0.4788433 -0.24414966 -0.21242803 -0.26321024 0.3069291 0.15116341 -0.119959116 -0.05619101 -0.053890463 0.5369708 -0.11260341 -0.31427428 0.6616663 -0.36070046 0.3270076 -0.38311338 -0.074153334 0.037796516 0.23338966 0.27680054 -0.27836907 0.4103926 -0.35996798 -0.3757211 0.005891798 -0.072426155 -0.09907789 -0.098124586 -0.044169113 -0.29303864 0.5350057 0.33981118 0.3323597 0.22327504 0.28828487 -0.101960994 0.17182627 -0.100380056 -0.53791785 0.2787233 -0.40748355 -0.3657756 -0.11192869 -0.14037375 0.3840521 -0.07480353 -0.49605614 0.018966084 0.007800419 -0.24039441 0.11403762 -0.25960797 -0.051707406 -0.35718668 0.2520995 -0.18612076 -0.6844299 -0.12896484 -0.4259401 -0.24660546 -0.22950114 0.06215086 -0.15652369 -0.33106598 0.3578699 0.15901065 -0.12822583 -1.0073538 -0.053740237 0.18917324 0.5777804 0.5726398 -0.22447643 0.0122586675 -0.43569645 -0.12984796 -0.19227114 -0.2870304 0.23384218 0.1402415 -0.037853178 -0.35104367 0.53377944 0.21060996 -0.16128609 0.34425217 -0.060164914 -0.12496253 0.0995146 0.13270569 -0.17211196 0.104643494 -0.113907844 0.28923368 -0.27814087 -0.21446404 -0.17183176
足コキ 0.3949613 0.1034842 -0.011429258 0.03518043 -0.27492628 0.1580222 0.14723319 0.017604599 0.10594144 0.09129886 -0.042533852 0.23907842 -0.07886022 0.1369817 0.061152413 0.3168794 -0.40303642 -0.13552873 -0.23099904 -0.14824769 -0.46477666 0.36177778 0.15618122 -0.33050376 0.045401514 -0.1321832 -0.08934885 -0.3350682 -0.23507339 0.26435155 -0.7071602 0.20279029 0.39771968 0.27387118 0.039427146 0.3719414 -0.12138502 0.018047936 -0.07796444 -0.36819118 0.37251645 0.10092449 -0.3800692 0.20942877 -0.30719241 -0.10314359 0.049479663 0.7497914 0.11061085 -0.3518325 -0.026727198 0.0071248217 -0.2559795 -0.32186115 0.20484532 -0.58728695 0.17749926 0.13022836 -0.25071892 -0.36679417 -0.1564682 -0.116173156 -0.04393234 -0.28194126 -0.081939586 -0.31806365 -0.33246538 0.1347564 0.3741845 0.16199112 -0.27632084 0.06522947 0.19129907 -0.16002132 0.2269399 -0.04122054 -0.5987213 -0.00993001 0.026046677 -0.28562868 -0.10043352 0.37583387 -0.23360859 0.17407665 -0.3118408 0.021496877 0.40188622 -0.07531633 0.090869166 0.12010887 -0.14316139 0.4405807 0.23504408 -0.5236418 -0.30292186 -0.44896927 -0.08402128 -0.48749453 -0.08539849 0.090134524
人外娘/モンスター娘 -0.2570935 0.5898711 0.007650549 -0.41370758 0.16434214 0.39515835 0.120026946 -0.278596 0.26519775 -0.085552715 0.23347077 0.1202849 -0.30701157 0.4903468 0.43749407 -0.29111585 -0.13160442 -0.24427487 -0.016651433 0.17021316 -0.04804061 0.08278675 0.038819674 -0.39010406 -0.13149007 -0.1533235 0.044525772 -0.588883 0.11148029 0.44414485 -0.20286973 0.3384477 0.2560103 -0.012869942 0.14235558 -0.31456804 -0.110213205 -0.14781491 0.3808998 -0.24871096 -0.2757812 0.53887826 -0.2759553 -0.05238532 0.09720147 0.022760695 0.17181478 0.054540496 0.43906948 0.17804703 0.23023331 -0.4541372 0.19729018 0.056200124 0.40205616 -0.44747394 0.86597204 -0.6418724 0.123165615 -0.35251382 -0.0996034 -0.096651495 0.051390346 -0.24678683 -0.31144583 0.20666435 0.35854858 -0.24822937 -0.13804473 -0.12617075 0.22684273 0.064209275 0.28666693 -0.011324243 -0.063642815 -0.32461375 -0.18383558 0.063973464 -0.17840216 0.0871533 0.5265712 -0.102241546 0.034331493 0.11322063 -0.030604403 0.022239473 0.35174987 0.52128434 0.020906376 -0.05626315 0.40873516 0.08113803 0.7451788 -0.072763264 -0.97342944 0.13702577 -0.012812389 -0.42382187 -0.02977819 0.025638819
シリーズもの -0.4611432 0.18733157 -0.39673412 -0.3773565 -0.04981103 -0.3595583 -0.20484869 -0.11263115 0.49271724 -0.6798846 -0.13184951 -0.15910311 0.10963501 0.80434346 -0.035622273 -0.42571118 -0.17987303 0.3172296 0.22437084 0.40043235 0.24016501 -0.07775985 -0.16834392 0.25357267 0.15675648 0.049406387 -0.1728315 -0.009034167 -0.18343596 0.010956505 -0.06531025 -0.32750106 -0.57684004 0.1632146 -0.16863681 -0.21304186 0.4214832 -0.011970004 0.026983904 0.15501444 -0.017400447 -0.166714 0.17675127 -0.049124017 -0.4576162 -0.2306704 -0.28148028 -0.08351253 0.12674707 0.15037419 0.085256465 0.13219985 0.23112305 0.24745187 -0.45997164 0.25348386 0.09573966 -0.22489747 0.09687766 -0.7389349 -0.041304164 -0.09756273 0.16214897 0.13398054 0.13655469 0.22393796 0.23479202 0.4895817 0.22805238 0.278408 -0.3886393 0.18354909 0.38094 0.4287579 0.28333813 -0.23193002 -0.18712346 -0.12861516 0.13217881 0.18418832 0.12971352 -0.10677126 0.21498942 -0.15983744 -0.11455268 -0.18899053 -0.1141368 -0.035569355 0.10319479 -0.023212282 0.21490473 -0.12947683 -0.13839674 -0.003178901 -0.3417933 0.5955298 0.058969744 -0.16696808 0.2758859 -0.08182032
学生 0.44120464 -0.46593195 -0.2545343 0.168188 -0.4632333 -0.53122985 -0.24207148 0.010660944 0.422689 -0.34775567 -0.123255 -0.05188743 0.19857222 -0.09029644 -0.17035346 0.62289184 -0.34328374 0.15178485 -0.3866059 -0.056660417 0.15022771 0.3340416 0.038924847 0.055975303 0.50299275 -0.20114139 -0.49507806 -0.15129596 -0.15406467 -0.27621236 -0.3746871 -0.031490646 -0.5333486 0.38582024 0.30840337 0.22788733 0.12900755 0.41338763 0.0314505 0.39061838 -0.33058733 -0.6913492 0.4708585 -0.27974176 -0.25981376 -0.16475105 -0.15148064 0.4135994 0.1762382 -0.41072515 0.021675998 -0.07130111 -0.16936707 0.1980304 -0.12828487 -0.0854284 -0.46069393 0.019217119 -0.0994004 -0.81942755 0.044906627 -0.5958043 0.009674682 -0.3741378 0.29988042 -0.27146316 -0.37670156 0.32448018 0.21883187 -0.40771177 -0.85579664 0.15539303 0.0042179376 0.75969994 0.6906493 -0.07303326 0.008894586 -0.3264804 -0.33224142 0.016740704 -0.350078 0.10811502 0.16487621 -0.061445266 -0.20112982 0.56805825 0.013018258 -0.3151047 0.5479072 -0.16180436 0.04976255 0.123688616 0.16944715 -0.14474268 -0.04552905 0.059059028 0.4947054 -0.32830644 -0.06630682 -0.0031451394
人妻 -0.25261876 -0.039445557 0.10774548 -0.5712819 -0.34748244 -0.76892775 -0.47240627 -0.55755776 0.8477328 -0.2962222 0.061497256 -0.45985988 -0.3491238 0.35671517 0.2512765 -0.10561911 -0.8964434 0.16703595 -0.8356326 -0.08477397 0.110392265 0.14802101 0.28211236 0.056013986 0.10769068 0.27900338 0.020690342 0.025732039 -0.08136541 0.2794192 -0.50243145 0.515121 0.28195882 -0.45278105 -0.331852 0.5094646 -0.5566618 0.10276856 0.18759523 0.34446642 -0.44952148 0.45007572 -0.120068654 0.31234995 0.13620202 0.76580256 -0.27796498 0.45407557 -0.08429246 -0.67803365 -0.052003838 0.09351975 0.16840614 0.56544477 0.14430973 -0.28850788 0.39748552 -0.77653867 0.07983808 -0.6585467 0.053329356 -0.3823496 -0.31585515 -0.18458131 0.06279553 0.6973648 0.69512486 -0.24536657 -0.3839713 -0.34932858 0.3097261 -0.014498664 -0.27668732 0.030594846 0.91353464 -0.09424759 0.33233494 0.64002043 0.029534684 -0.21041964 -0.85316104 0.68646145 0.14591749 0.0641846 0.30936688 -0.098232865 -0.060091704 -0.32046133 0.8203994 -0.22554141 -0.49284214 -0.85713667 1.0441812 0.16983202 -0.20501235 -0.11554835 -0.110842004 0.84863895 0.6765638 0.5319311
寝取られ 0.12072237 -0.6417724 -0.12870249 0.26319063 -0.28939098 -0.5438435 -0.54683316 -0.30146465 0.69108397 0.20168793 0.010822665 -0.1771906 -0.050010856 0.09805179 -0.092043094 0.36965933 -0.70288354 -0.14110035 -0.6400378 -0.44427615 -0.5861064 0.22319004 0.1514749 0.15577656 0.5645156 0.24404642 -0.21551187 -0.035061628 -0.16709808 0.67088556 -0.17313412 0.7651684 0.6384932 -0.16645785 0.15769629 0.17540962 -0.33171672 0.21061772 -0.031774152 -0.3009693 -0.099173166 0.32072526 -0.1935064 0.21466373 0.20331626 0.72780234 -0.076307505 0.1987498 -0.48940718 -0.79682213 0.34287396 -0.09235952 -0.21548669 0.17902438 0.32939965 -0.86375344 0.6187582 0.017584197 0.16347171 -0.24071755 -0.5094748 0.011006142 -0.6111861 -0.12094818 -0.17927349 0.20066108 0.054434154 -0.2037184 -0.4075247 0.020360775 -0.15201147 0.12021837 -0.14732085 -0.34660566 0.6437305 -0.7745505 0.5743177 0.26402962 -0.21028107 -0.15949361 -1.005714 0.74466026 0.015402353 0.14174378 0.13478012 0.35550433 0.06450217 -0.21548408 0.8212101 0.10835107 -0.55561143 -0.14519773 1.0685966 0.29906008 -0.062709846 -0.6329684 0.03018161 0.22581214 0.26207867 0.27933913
先輩/後輩 0.17312297 -0.50566244 -0.28976136 0.09256701 -0.5310392 -0.48872992 0.044421628 0.14379954 0.5724326 -0.20360786 -0.18121654 0.076009266 -0.093146116 -0.008584788 -0.009404491 0.4586531 -0.16471367 0.1213489 -0.35167056 -0.11034517 -0.03231242 0.20805152 0.1281965 0.13655066 0.52967286 -0.0802223 -0.35738543 -0.27502993 -0.15959992 -0.17776944 -0.34632933 -0.023038095 -0.297057 0.48066667 0.22940443 -0.10309825 0.10725985 0.16829625 0.044514634 0.4740255 -0.28540504 -0.5622849 0.1925726 -0.098821774 -0.31528994 -0.16603997 -0.017210212 0.30618122 0.14994217 -0.47601545 -0.1447332 0.026546424 -0.009615446 0.10897132 -0.021407008 -0.12386813 -0.5174433 -0.054923017 0.079208426 -0.88016874 0.089286394 -0.5208939 -0.26814193 -0.31440812 0.13078587 -0.27497533 -0.32691708 0.3181519 0.17478481 -0.24561073 -0.89737856 0.23490463 -0.12180028 0.5690325 0.68721473 -0.0003723788 -0.069541395 -0.14628635 -0.47801408 0.057272185 -0.15017417 -0.014008269 0.2069146 -0.05604041 -0.038347866 0.61117464 -0.058991246 -0.25640935 0.83893424 0.12243071 0.034434833 0.3888123 0.13151947 -0.3086754 0.065324955 0.05238797 0.3415332 -0.4319405 0.18117313 0.22232984
処女 0.6105642 0.34680125 -0.031224567 0.37733465 0.09831333 -0.09681254 -0.054730102 0.21785481 -0.49102837 -0.040466852 0.14318135 0.036209133 0.28317043 -0.07599819 0.040873412 0.23847885 -0.7375403 -0.019371884 -0.42144147 -0.025731448 -0.18378887 -0.14750278 0.6599388 -1.1286165 0.2999881 -0.5943572 -0.3865203 -0.026207685 -0.08373255 0.7303112 -0.5151562 0.65748775 0.70936304 -0.41325432 0.37733015 0.8358143 0.45665088 -0.2320435 0.005284929 0.5326907 0.56532687 -0.093717605 -0.45750478 -0.16197002 0.1445878 0.28544706 -0.3917249 0.32532188 -0.17026426 -0.6241645 -0.10888969 0.018734079 -0.2826242 -0.07630201 -0.01786021 -0.19183032 -0.2667146 -0.05747933 -0.12926361 -0.43404266 0.10710972 -0.62486744 -0.60906196 -0.61806524 -0.31140196 -0.10395812 0.11462198 -0.69373435 0.37393704 0.31957713 -0.4359563 0.1833289 -0.11392956 0.4560737 0.021610947 -0.3134035 -0.008339687 -0.050426953 0.15337314 -0.60978854 0.0023084832 0.34341493 0.0012076182 -0.11989311 -0.33452576 0.59189606 0.43436787 0.3244342 0.115767375 0.22457442 -0.31369278 -0.0042215306 0.1863338 0.053023007 0.3508893 -0.012348125 -0.11363822 0.028704172 -0.2153392 0.074369594
健全 -0.6923535 -0.03558148 -0.3913905 -0.505287 -0.23167656 -0.28332677 -0.25636265 -0.2645443 0.78800863 -1.181394 0.009543029 -0.341342 -0.12855498 1.0365459 -0.14017673 -0.45784184 -0.24059555 0.34341687 0.610968 0.99512595 0.5229296 -0.11227628 -0.47443405 0.4965651 0.48834893 0.2690627 -0.498787 -0.3254437 -0.2120149 -0.25043422 0.12710688 -0.44228923 -1.2816347 0.26497105 0.17076913 -0.6582292 0.45088443 -0.054448888 0.050051205 0.19194224 -0.4770842 -0.10853578 0.42688316 -0.13810419 -0.40804225 -0.40592656 -0.35520428 -0.43346232 0.34002686 0.31693166 0.12918313 0.29458562 0.022636645 0.6349818 -0.15657426 0.4780513 0.0033255268 -0.4916616 0.23179743 -1.111446 0.30912155 -0.14845783 0.4992918 0.117309965 0.078452945 0.13362087 0.22896293 0.5820698 0.0987888 0.36405706 -0.277822 -0.0046241814 0.50640863 0.8389558 0.19927774 -0.26654902 -0.020302108 -0.08677065 0.21318288 0.34653392 0.16414888 -0.33287814 0.4602907 0.17534085 -0.2187146 -0.2728732 -0.23027572 0.39873722 0.5583268 -0.061184164 0.48310474 -0.26799476 0.0638857 -0.23184335 -0.5220343 1.1984856 0.38590577 -0.4400034 0.3207903 -0.14023213
ツンデレ 0.28621483 0.2435807 -0.19441909 0.047129765 -0.009810478 -0.015401394 -0.075036585 0.117498234 -0.13577008 -0.34538528 0.12963824 0.09671504 0.14680946 0.33575606 -0.21617635 0.14057928 -0.5169714 -0.010671803 -0.034228437 0.1173271 0.021992775 -0.11981316 0.20748326 -0.22723292 0.19105479 -0.24938866 -0.47343495 -0.07570425 -0.15521155 0.2558148 -0.37562874 0.13546842 -0.15997615 0.008097411 0.23505062 0.21778342 0.48880947 -0.024243193 -0.11641393 0.11543123 0.3759365 -0.26588064 -0.02409702 -0.044980936 0.0023717224 -0.08445303 -0.25723 0.23349617 0.010244212 -0.35843286 0.07676577 0.14585276 -0.35352165 0.036698144 -0.20102555 -0.044269085 -0.09652002 0.13512978 -0.17196289 -0.758037 -0.04868511 -0.24461246 -0.17587155 -0.43873188 -0.24468961 -0.08673154 -0.124021 -0.004887738 0.45588863 0.12909584 -0.5881639 0.1382117 0.124339595 0.42182642 0.088500045 -0.33706048 -0.27437258 -0.22848865 0.23682775 -0.13781807 0.15462483 0.28344688 0.3030964 0.1669145 -0.33867487 0.28420994 0.12307116 0.0671726 0.06664635 0.04041685 0.058293905 0.1608572 0.14555103 -0.20955819 0.054415703 0.15210444 0.054091927 -0.14873956 -0.2139003 0.01675912
ギャル 0.9752078 -0.8296715 0.22788838 0.5425951 -0.61775005 -0.36529174 0.0317608 0.2943759 0.34276918 0.27931082 -0.20156842 -0.13451967 0.10709788 -0.4638383 -0.25520054 0.9221211 -0.21746816 -0.09685665 -0.73267525 -0.13938576 -0.11506435 0.5414523 0.24522638 -0.07421074 0.32326335 -0.13107301 -0.20810926 -0.17802726 -0.08700013 -0.29182383 -0.4219183 0.15523472 0.09001057 0.60525554 0.14540337 0.48700076 -0.25626525 0.65318406 -0.08113752 0.24033138 -0.44881493 -0.5523566 -0.03781752 -0.23374504 -0.55219173 -0.19215146 0.19442879 0.62468046 0.044213917 -0.85163456 -0.17032923 -0.22398113 -0.15285042 0.06057353 0.061622486 -0.3296932 -0.29248896 0.2120913 -0.27088207 -0.8974703 0.19446293 -0.5534657 -0.13811341 -0.375307 0.28182885 -0.0067854114 -0.5358999 0.3202581 0.5223773 -0.25378332 -0.90796983 0.23849897 0.29139435 0.18067907 0.7965131 0.23095421 -0.15180796 -0.2181296 -0.49940675 -0.12685637 -0.1951063 -0.21702808 -0.04010007 0.0708714 -0.17686911 0.3888501 0.11774796 -0.54154706 1.0004519 -0.2333087 -0.1542457 0.50237834 0.21160531 -0.5864612 -0.01266854 -0.35384804 0.7164281 -0.2820666 0.11269212 0.2109857
口内射精 0.6070207 0.57231355 -0.147487 -0.39481366 -0.0031313896 -0.17029314 0.41229483 0.743861 -0.61898875 -0.2018434 -0.08360392 -0.028940469 0.21825829 -0.008008829 0.16709912 -0.3244694 -0.4956554 0.43017244 -0.5391119 0.24894068 -0.5353419 0.0066425614 -0.023617808 -1.027264 -0.06329185 -0.7348214 -0.030439373 -0.09206534 -0.1571611 0.9389509 -1.0549798 0.73548216 0.9536685 -0.23459096 -0.034591943 1.522161 -0.010187229 0.15291168 0.068744645 0.14573991 0.013535186 0.010621002 -1.0649122 0.21329878 -0.8204266 -0.0006216846 0.3862057 1.2829651 0.21181841 -0.33421838 0.020597223 0.063358925 -0.06618946 -0.61139214 0.22453444 -0.14406744 0.036361534 -0.10896116 -0.24945962 -0.21508466 -0.13776615 -0.64190435 -0.4751439 -0.19053687 -0.09948163 0.27350914 0.5299989 -0.5333025 0.26226962 -0.22621825 -0.16659296 0.13404778 0.0487999 0.63169086 0.41008422 0.02388396 0.060913336 -0.045589164 -0.052887194 -0.39981297 -0.15284027 0.61138266 -0.23176801 0.11261599 -0.67918456 0.31243894 0.66604525 -0.13453726 -0.053610086 0.18750976 -0.20488389 -0.47046387 0.17570917 0.28648832 -0.04446383 -0.2660665 -0.2790072 0.046553757 -0.08946069 0.13761291
色仕掛け 0.35635427 -0.030342031 0.13569869 0.09141591 -0.21059598 0.061096482 0.01150949 -0.11452795 0.5227579 0.17159583 0.0842836 0.2709407 -0.23357497 0.12885441 -0.079929575 0.5291155 -0.47601822 -0.28250447 0.07471617 -0.07248449 -0.44936764 0.6340395 0.032052387 0.20319788 0.22236839 0.06327071 -0.3598152 -0.5969069 0.057072826 0.07769205 -0.24731044 0.0319017 0.14005756 0.25691217 0.24399523 -0.24436012 -0.45156184 0.11007072 0.15413198 -0.1865453 -0.09751832 0.2281682 -0.28708303 0.09540213 -0.100511886 0.17887673 -0.17615138 0.5463307 0.12222642 -0.5741088 0.21678923 -0.33996338 -0.4313712 0.16166924 0.47583136 -0.71026045 0.3006646 0.017410155 0.07572323 -0.48459893 -0.1805084 -0.34384754 -0.13298109 -0.3367923 -0.2159809 -0.06782022 0.105889514 -0.017533692 -0.16716142 -0.0108773345 -0.17114167 -0.08364909 -0.082553886 0.0023439578 0.3268662 -0.251035 -0.33152574 0.30802333 -0.269626 -0.116853915 -0.4118265 0.40352485 -0.23563732 0.15435225 -0.112196006 0.09158009 0.1665856 -0.008531329 0.48325685 -0.020804318 -0.20747197 0.006336151 1.0547103 -0.48791394 -0.26750526 -0.27384272 -0.035472658 -0.46525842 0.046166975 0.1703428
汁/液大量 -0.029335273 -0.11342214 -0.18173976 -0.6709449 -0.2589701 -0.19076392 -0.22246149 0.090382025 0.5095747 -0.081734434 -0.47402897 -0.34675324 0.15237705 0.3472072 0.20517404 -0.40613407 -0.01293307 0.7230099 -0.49693346 0.27542037 0.09803017 0.32468534 -0.2051412 -0.36246234 -0.34643358 -0.2826487 0.46532643 0.2685115 -0.27670312 0.05100542 -0.32290214 0.10299753 0.18659441 0.29764965 -0.6071475 0.67253816 -0.29556683 0.16865216 -0.05149992 -0.23690239 -0.5377061 0.298808 -0.20165704 -0.01437905 -0.7948571 -0.24796785 0.38463724 0.44858068 0.23404545 0.14375387 -0.17370583 0.123046994 0.27786657 -0.114529625 -0.47731024 0.034975532 0.36702782 -0.35769445 -0.17222339 -0.326863 0.097433075 -0.019449849 0.23468767 0.5129805 0.2958317 0.31178284 0.261873 0.41386467 0.03167812 -0.28689957 0.0007240865 0.053670507 0.5337701 0.13566115 0.5086883 0.3789533 0.0626496 -0.14654301 0.12146762 0.009294082 -0.23445825 -0.22680074 -0.09850482 -0.1305605 0.06893779 -0.31623536 0.065845884 -0.4768072 0.09529861 0.026344191 -0.12906122 -0.30552453 -0.14337657 0.15980394 -0.59816134 -0.057667643 0.17967103 0.33946577 0.48089105 -0.06071274
複数プレイ/乱交 0.35704708 0.02592641 0.24294595 0.19610074 -0.15056665 0.028642222 0.027480638 0.19134906 -0.16044407 0.27891153 0.3049292 -0.2214414 -0.25237063 -0.016443323 0.106474064 0.18667604 -0.46665132 -0.23158026 -0.6045939 -0.0053810067 -0.30619508 0.27373126 0.301842 -0.7811769 0.16169949 -0.40144885 -0.0691368 -0.49677005 -0.11091123 0.78467274 -0.20958634 0.8557161 0.82761884 -0.26678544 0.64399105 0.5337122 -0.27860695 -0.13544697 0.2270952 -0.14994861 -0.100906506 0.4031902 -0.40388024 -0.19872674 0.17802545 0.268591 0.15985322 0.4871959 -0.008768147 -0.4766861 0.075527616 -0.51908463 -0.38694 -0.15686448 0.5034791 -0.43825704 0.34466773 -0.022744851 0.04428889 0.053161446 -0.019974457 -0.34818366 -0.498108 -0.19802006 -0.44439855 -0.0202998 0.24142167 -0.5868291 -0.076798506 -0.20745489 0.1064516 0.10172708 -0.06552196 0.19842777 0.22872478 -0.2347199 0.4909281 0.07498796 0.036587857 -0.3273194 0.041299157 0.30108595 -0.08538652 0.33966196 -0.021279274 0.35749164 0.62121546 0.46125194 0.39467874 0.13052063 -0.21618448 -0.30094647 0.9914275 0.23966923 -0.047760196 -0.40959343 -0.18087186 0.0055168257 -0.08654655 -0.09935232
放尿/おしっこ 0.41628835 -0.20518596 0.26990137 -0.001800475 0.2655139 0.056338124 -0.15010588 -0.15592992 -0.13656859 -0.067884155 -0.06236704 -0.5033786 0.6715268 0.20876035 0.12281327 0.13115469 -0.5928153 0.4856994 -1.0825611 0.0865784 0.2445443 0.40677553 0.3849495 -1.0531332 -0.3703722 -0.47927096 0.34099233 0.22041927 -0.29954246 0.47417817 -0.20293164 0.7793372 0.94218045 0.04490136 -0.00576522 1.5490878 0.06797517 0.26602286 -0.3017439 0.15201297 0.010833203 0.18279114 -0.43501082 0.004400811 -0.48585653 -0.26414537 -0.021764662 0.14820458 -0.4119244 -0.19923748 -0.21070813 0.008165301 0.10304379 -0.48522916 -0.75269306 -0.042152435 -0.26615113 0.5550799 -0.54949486 -0.08231121 -0.10016857 -0.0664449 -0.2938665 0.25818458 -0.07662871 0.13536417 -0.26913524 0.2987698 0.56673056 0.1519556 0.22906195 0.42681566 0.17848432 -0.27917522 0.52050966 -0.03176187 0.08690668 -0.50441 0.18029734 -0.5241979 0.03245294 -0.11672436 -0.23518163 0.027788552 0.21825874 -0.05912094 0.13633245 -0.48308676 -0.085073866 -0.035487402 -0.54466903 0.02262581 -0.35537562 0.10374716 -0.08628741 -0.6090601 0.36405653 0.3840746 0.018539192 -0.014460645
陵辱 0.22862093 -0.76583153 0.64176 0.20269184 0.13904329 -0.22778021 -0.34615332 -0.4176864 0.24930896 0.29421884 -0.061218835 -0.39868405 0.48120037 0.039028626 -0.11083444 -0.14602573 -0.60889155 -0.27648994 -0.69031847 -0.40065786 -0.16230951 0.6202719 0.6492843 -0.6621203 0.2571817 0.41773537 0.010185469 0.29405046 -0.33201745 0.8868886 0.15444916 0.73190534 0.6951916 -0.12402146 0.3071601 0.8178481 -0.08923691 -0.06524985 -0.025568418 -0.50259554 0.25165057 0.07251367 -0.10782944 -0.04038585 -0.10521584 0.41113654 -0.44382846 -0.030777505 -0.64755774 -0.5814726 0.06051858 -0.38028526 0.41446325 -0.23335473 -0.3176947 -0.7504608 -0.24013764 0.46738932 -0.22101848 0.06755937 -0.24713671 0.2785185 -0.11284142 0.23313415 0.049002543 0.12593582 -0.07073221 0.13120177 0.22499996 0.69269717 0.14908306 0.16993946 0.3909893 -0.7527338 0.49881402 -0.56483716 -0.055732325 -0.025140122 0.04825323 -0.5080566 -0.3647857 -0.08793665 -0.116807915 -0.05736066 0.10812629 -0.108220614 0.2382651 -0.2047073 -0.04586724 0.09213561 -0.39782566 0.4371258 0.38589236 -0.16440722 -0.19590677 -0.7659146 0.04728121 0.058396146 -0.7122902 0.13995443
拘束 0.05046515 -0.31792837 0.34609157 -0.18526517 -0.044703964 0.12733962 -0.09481282 -0.20228624 0.28226134 0.72323376 -0.25613752 -0.070467085 -0.02516981 0.021666057 0.153724 -0.11835196 0.06381243 -0.2594614 -0.6652695 -0.43545344 -0.43990886 0.5252036 0.1469588 -0.62115484 0.122516714 -0.09510725 0.21942289 0.021801213 -0.36967 0.7376421 -0.11475764 0.86250854 1.083182 0.0320496 0.4912718 0.7726466 -0.19191146 -0.15121971 0.12618855 -0.7844395 -0.04731451 0.24743296 -0.3400889 0.032235496 -0.423645 0.23130046 0.25738665 0.311374 -0.12607788 -0.20003378 -0.2163825 -0.5881682 0.47431102 -0.46716544 -0.13421416 -1.0509424 0.110915065 0.08320382 -0.2042949 0.13423158 -0.1991968 0.26524836 -0.2248054 0.31568146 -0.025307285 -0.27463263 -0.26981428 0.06842983 0.17741783 0.26552492 0.0072781327 0.36459416 0.5720156 -0.7497926 0.28780422 -0.40534708 0.16338886 -0.24454942 -0.0019669412 -0.3454289 -0.04946729 -0.26129043 -0.22421199 -0.09352222 0.28721714 -0.015588121 0.3418452 -0.1478204 0.008390782 0.19913588 -0.08996173 0.80704844 0.12529205 -0.32348695 -0.5700973 -0.96246725 -0.009835775 -0.37536317 -0.38918194 0.18052185
幼なじみ -0.1097391 0.11977397 -0.24900775 -0.009606311 -0.35719207 -0.48277372 0.041002903 0.32917988 0.10232227 -0.5832863 -0.06648046 -0.033788636 -0.22617571 0.24683116 -0.1783523 0.04335122 -0.35439575 -0.09661825 -0.032897823 0.3904742 0.0032662752 -0.24747677 0.18832745 -0.050857525 0.5389727 -0.11404341 -0.49638686 -0.27633858 -0.1850058 0.033343807 -0.47237763 0.005009579 -0.48977938 0.092391126 0.0906887 0.024998533 0.36796263 0.04154285 0.08190236 0.7217006 0.15654829 -0.46674323 0.0900628 -0.1412062 -0.23987538 -0.27903312 -0.2182669 0.22771516 0.17052457 -0.33709115 -0.15071385 0.22690839 -0.069710635 0.14053705 0.061214644 0.27003878 -0.3776134 -0.33077404 0.12477916 -0.9317972 0.31652233 -0.6416594 -0.30067953 -0.39751175 -0.043383945 -0.0626942 0.097663656 -0.098696336 0.21183458 0.056148496 -0.6692564 0.1658827 -0.068136185 0.77799046 0.51566094 -0.09194453 -0.13866937 0.09559752 -0.23509312 -0.04882715 0.09695211 0.10891801 0.21544781 -0.049074776 -0.25606507 0.36571032 0.113190845 0.14195114 0.6451931 0.10997496 0.27181792 -0.006926776 0.01332725 -0.13994505 0.22731817 0.6333861 0.02002886 -0.327335 0.1978783 -0.041689496
童貞 0.79926765 -0.54665273 0.24383526 0.5318227 -0.41991112 0.41522986 0.023728259 0.10887924 0.056553848 1.0260433 0.13104047 0.27394453 0.094517455 -0.7148657 -0.8627524 0.877648 -0.8547808 0.08638077 -0.2674971 0.21546689 -0.53959084 0.57441854 0.33750013 -0.8234762 0.38564113 -0.32638866 -0.18032137 -0.42982578 0.090031624 0.34769157 -0.21817145 0.68015707 0.75509536 0.48083124 0.116606094 0.51274323 -0.44644293 0.18945149 -0.3272661 -0.034365557 0.4977241 0.5451196 -0.5204792 -0.14771448 -0.41989246 -0.013487492 -0.3399122 0.4596282 0.13124432 -0.49853387 -0.6802324 0.24936207 -1.0429467 -0.17926411 0.2759762 -0.8470489 -0.2682271 0.0821399 -0.54767704 -0.1680921 0.7400703 -0.4775462 -0.39719293 -0.3672063 -0.3906017 -0.47385514 -0.39659384 0.048044182 0.24212176 0.6619086 -0.029383529 0.21319707 0.26797554 -0.30578145 -0.087433025 0.33100414 -0.68026507 0.43822673 -0.028697828 -0.7068593 -0.69795185 -0.00020473944 -0.63505024 0.13359882 -0.41289344 0.4212741 0.12323755 -0.3602166 0.6080354 0.20431861 -0.6050226 0.61409324 0.28929806 -0.7743743 -0.059384014 -0.26016638 0.20110643 -0.0034521122 0.30071744 0.5478117
母親 0.13738069 0.113258116 0.08934855 -0.31961736 -0.59253335 -0.020611279 -0.31678426 -0.23379317 0.6341929 0.122158706 0.32747924 -0.39876065 -0.7315343 0.188292 -0.27743837 0.03974103 -0.8496706 0.7103281 -0.08219815 0.38613293 0.092693046 -0.02907707 0.28754693 -0.10071789 0.030901382 -0.033796027 0.08020818 -0.26949045 -0.1145804 0.20039296 -0.3322791 0.2268631 0.3194122 -0.05488493 -0.30880266 -0.16137272 -0.39330214 -0.2038766 0.093433656 0.39374256 0.0054392284 0.7269312 -0.3594704 0.020353107 -0.16632237 0.50032955 -0.19608364 0.1959173 0.26050475 -0.67082924 -0.3076275 0.15623766 -0.2920863 0.67947733 -0.012844176 -0.13588555 0.2446789 -0.87931836 -0.17019036 -0.47127467 0.460685 -0.50160474 -0.055382915 0.026032988 -0.27513117 0.41767484 0.63135195 -0.29608986 -0.21055317 -0.03691672 0.4721096 0.0015652224 0.008666722 0.19855447 0.30125803 0.33798954 -0.25598735 0.71801406 0.3945237 -0.2224687 -0.49635848 0.24745119 -0.11612179 0.45524663 0.13330883 -0.15504335 -0.15626247 0.07671496 0.64489335 -0.07537124 -0.46924177 -0.8540182 0.70230436 -0.16019723 -0.08718871 0.37609428 -0.13029177 1.0476149 0.9434986 0.28489134
オールハッピー -0.29284874 -0.14700375 -0.210712 -0.3659974 -0.2986847 -0.11843988 -0.0719473 0.072342984 0.28486264 -0.70857525 -0.45059833 -0.35000992 -0.23792942 0.19875316 -0.41667363 -0.6486203 -0.118062064 0.17235304 0.7343106 0.6871772 0.012788723 -0.31553674 -0.91075873 0.28663987 0.6028685 0.09678874 -0.59454894 0.006173048 -0.2727068 -0.026707837 0.0077997167 -0.2812906 -0.9043725 0.053549845 0.24220584 -0.34856534 0.26097372 -0.0838648 -0.028026411 -0.08418451 -0.39172086 -0.044841636 -0.033167686 -0.41524294 -0.78834546 0.019192634 0.1952833 -0.24752992 0.6785745 0.3002694 0.19436091 0.04892215 0.036018703 0.22660035 -0.09049082 0.4585788 -0.14726087 -0.7568723 0.18912892 -0.4837924 0.6379376 -0.29730847 0.43780953 0.24860895 0.10570218 0.008788818 0.26508585 -0.13380645 -0.06601979 0.5735215 -0.21307303 -0.09904514 0.6127768 0.99196833 -0.016703153 -0.3770997 0.26045814 -0.03447248 -0.057397347 0.3536218 -0.26496637 -0.41098246 0.25480065 -0.11570671 -0.22094624 0.24054214 -0.4130716 0.16810213 0.66748273 0.14728454 0.1823409 -0.124487855 -0.14870103 -0.06370508 -0.30245778 1.0618085 0.48473907 -0.2758655 0.46550408 0.25567278
ごっくん/食ザー 0.53319806 0.6287505 -0.3203098 -0.31504685 -0.05651894 -0.06751142 -0.1269454 0.39147717 -0.31512967 -0.28976527 -0.008642502 -0.17149964 0.292873 0.27894318 0.20022321 -0.13752857 -0.28737754 0.75274247 -0.585147 0.12992936 -0.24553464 0.15872191 0.23132169 -1.0734433 -0.36685747 -0.9992655 0.21682858 0.19627005 0.018481318 0.56735784 -0.77473193 0.5089962 0.63916945 -0.0019377696 0.008909758 1.2609838 0.034605682 -0.107853234 -0.06343185 -0.063090876 0.057393134 0.14250205 -0.46668565 -0.14053391 -0.5983493 0.08102005 0.31246617 1.1108978 0.1670919 -0.24688248 0.058119938 0.0028682987 -0.08302551 -0.38751972 -0.0026451964 0.0118070915 0.3577584 -0.109633036 -0.3454066 -0.42804736 -0.23892708 -0.3505923 -0.2642489 0.0028259025 -0.0155155705 0.2334069 0.5594755 -0.31120095 0.057366725 -0.37763676 -0.17357023 0.08177317 0.04372061 0.6231316 0.23799159 0.1276164 -0.09779361 -0.31404936 0.3519343 -0.3197985 -0.3308276 0.6018092 -0.13981608 0.106273666 -0.45800424 0.06660018 0.7025197 -0.0036180222 -0.22929226 0.2849253 -0.4504787 -0.38310888 0.19243263 0.1529935 -0.18071374 -0.278957 -0.36789057 0.35695177 0.17595172 0.02516003
熟女 0.0035453925 -0.1971272 -0.036364328 -0.183854 -0.30245754 -0.42999977 -0.3336804 -0.24744911 0.6758344 0.017903488 0.114097536 -0.4144299 -0.12314463 0.25885636 -0.10433017 0.03153324 -0.8786425 0.45167226 -0.45021686 0.21384194 -0.11989491 0.36373484 0.22433917 0.028353207 -0.042318545 -0.010834017 0.36565897 -0.042258546 -0.0997311 0.35629514 -0.5103888 0.30655366 0.55046725 -0.0466137 -0.7301345 0.43894628 -0.5964848 0.13342623 0.09872721 0.081024 -0.13588311 0.6840081 -0.47783312 0.12539706 -0.3663631 0.32411617 -0.1610151 0.37225276 -0.14805289 -0.7006298 0.096902184 0.26523492 -0.05828844 0.3896464 0.06537666 -0.28131267 0.602177 -0.28225687 0.07244044 -0.45033532 -0.11973038 -0.20774038 -0.3175169 0.21254055 0.13063663 0.6618066 0.4252669 0.03274683 -0.23962353 0.07248137 0.36549702 0.20481667 0.14031129 -0.23952968 0.64608973 0.09835724 -0.10573954 0.605648 0.11445825 -0.17276287 -0.7074588 0.49791667 -0.26495773 0.18431671 0.048823502 -0.2584384 0.035653453 -0.2969968 0.47133684 -0.23381495 -0.596622 -0.90692496 0.69683814 0.33244574 -0.18191306 -0.08659362 -0.049309596 0.8682498 0.75787526 0.13677886
和姦 -0.074423015 0.35337436 -0.13818422 0.007566396 -0.43559402 -0.3779983 -0.16120003 0.4746674 -0.23443589 0.35878593 -0.16245091 -0.046707828 -0.17437753 -0.32070404 -0.18132032 -0.1469673 -0.46703556 0.06739765 -0.30035222 -0.031160254 -0.74520534 -0.5632587 0.22308111 -0.76758707 0.6205962 -0.4249749 -0.3336881 0.054927025 -0.3166395 0.8328814 -0.6066474 0.99396 1.0523398 -0.6857548 0.28453106 0.91209114 0.28766012 -0.18501458 0.0452984 0.6212226 0.54848963 0.00058194523 -0.67413586 0.06029493 -0.39482635 0.4124817 -0.029384218 0.26685244 -0.023078367 -0.4688922 -0.474598 0.075383425 -0.17426966 -0.18311374 0.025265217 -0.35164067 -0.08302828 -0.66518694 0.044188183 -0.28186753 0.40783796 -0.74210185 -0.8599084 -0.28741762 -0.2908005 -0.124376245 0.51106286 -0.9059616 0.07538643 0.25716633 -0.3695663 0.5879124 -0.11806372 0.30277452 0.15236901 -0.42236003 0.19134864 0.54356253 0.04410147 -0.44398886 -0.22404101 0.18370828 -0.06952569 -0.31001034 -0.01962156 0.51527816 0.22193238 0.26990518 0.70019263 0.30241612 -0.10532319 -0.010702394 -0.14092493 0.14645213 0.46392027 0.1374826 -0.389453 0.14104454 0.38099673 0.13773562
妊娠/孕ませ -0.17353348 -0.1129384 -0.11093743 0.07373866 -0.40222695 -0.29951054 0.03924939 -0.22286403 0.15296446 0.107228145 0.010148128 -0.34680828 -0.3697674 0.09225113 0.18932562 -0.012778248 -0.630642 0.016518174 -0.22844549 -0.26265606 -0.3170708 -0.23206758 0.35570955 -0.5266668 0.6448345 0.16201405 -0.35873404 -0.29785845 -0.1879776 0.95248824 -0.5087687 0.69953054 0.72061133 -0.6704661 0.2639102 0.31939563 -0.06684917 -0.3324834 0.294144 -0.001991899 0.25932756 0.5039717 -0.27167767 0.2059669 0.2554521 0.7310876 -0.18756863 0.0924054 0.025578745 -0.618093 -0.121163554 -0.19515833 0.012329256 0.070261605 0.6746932 -0.39119008 0.52396894 -0.59538454 0.19557138 -0.14413461 -0.28412917 -0.17566954 -0.26447797 -0.2128674 -0.26641762 0.08759356 0.2670221 -0.5215904 0.18506704 0.023549924 0.2182393 0.118961625 -0.22496605 -0.12205115 0.25363883 -0.50902355 0.31382388 0.2986632 -0.11330205 -0.41941825 -0.050808314 0.53896576 0.18945055 0.31467986 -0.21843268 0.3771644 0.27290398 0.7152161 0.73069876 -0.0059227278 0.1575302 -0.34442428 0.79311985 0.16986378 -0.18668689 0.01675188 0.0065520857 0.29329088 -0.057787906 0.32384753
フタナリ 0.41402692 -0.36492628 0.61586684 0.44309074 0.47275072 0.21695368 0.05282525 -0.0036832187 -0.06838885 0.44965625 0.29333284 -0.2577418 0.7062607 -0.16235083 0.33290207 -0.05731429 -0.31597346 -0.35204515 -0.81756765 0.118733786 -0.22271918 0.5740112 0.41460806 -1.2708503 0.24443012 -0.39344043 0.43432993 -0.33053175 0.2360259 0.7666017 0.28218615 1.1796161 1.0519121 -0.0691243 -0.046172045 0.7622223 -0.17183694 0.19447047 0.20679136 -0.07728564 -0.3872693 0.48798057 -0.5693489 -0.3519458 -0.08457806 0.042287163 -0.06010779 -0.09319043 -0.34455788 -0.13802418 0.12013502 -0.53930897 -0.026206017 -0.29846594 -0.017906137 -0.6988705 0.33042064 0.26738143 -0.22206408 0.41537634 0.06884258 -0.3268907 -0.38725457 0.20952071 -0.38017082 0.25081357 -0.0017216294 -0.29285944 0.0630785 0.6670788 0.3575281 0.44573402 0.420769 -0.52210164 0.0824201 -0.5133294 0.6032158 -0.07730638 -0.3681303 -0.31190997 0.053323306 -0.7258679 -0.45898613 -0.38856065 0.13278928 0.008991628 0.46536246 0.01735049 -0.09468931 -0.0810427 -0.24712582 0.22394916 0.2951676 0.73402107 -0.35722554 -0.52345175 0.28255388 -0.10403332 -0.18223636 -0.07634747
奴隷 0.43821627 -0.62800264 0.6839796 0.24316002 -0.07160744 0.06019386 -0.24106435 -0.4138274 0.38659698 0.8217496 -0.2941835 -0.12720963 0.12641774 -0.22125424 -0.03235763 0.12703511 -0.16819564 -0.5119112 -0.70330286 -0.45893058 -0.56348056 0.76612586 0.22165571 -0.45096406 0.10541039 0.25102448 0.27037337 0.06529053 -0.23212573 0.513058 -0.0025027492 0.8196646 1.1199373 0.071899116 0.41876572 0.8087521 -0.36218956 0.0902906 -0.010173923 -0.8552334 0.033166833 0.36243403 -0.44674405 0.00662846 -0.4777666 0.4583069 0.083601035 0.24437575 -0.27406776 -0.39890072 -0.16750495 -0.6285326 0.20949808 -0.33616996 -0.26405933 -1.1803135 0.038581282 0.17029464 -0.41895106 0.119902484 0.027972315 0.22254911 -0.13568814 0.28350434 -0.12500119 -0.16196586 -0.49232835 0.1916694 0.19374421 0.7670134 0.09151101 0.21263017 0.80292195 -0.99187917 0.30917704 -0.49166003 -0.015090472 -0.035191476 0.121637024 -0.46152055 -0.45895296 -0.21749495 -0.39530557 -0.2133874 0.29674992 -0.22285764 0.13794689 -0.46033907 0.1859974 0.08336916 -0.4456711 0.91741586 0.13206388 -0.5160702 -0.44161007 -0.99480593 0.18924807 -0.30195108 -0.21248814 0.46025953
着物/和服 -0.33884978 0.7023649 -0.41019055 -0.23756823 0.16950451 0.11532252 0.16184424 -0.08720151 0.18424468 -0.56516296 0.38144293 0.16661775 -0.33526734 0.538054 0.13231419 -0.061505295 -0.23590046 -0.1042289 0.14154404 0.57078993 0.30695105 -0.14816053 0.16460177 -0.1805803 0.0659664 -0.3753702 -0.34537378 -0.6972641 0.22827634 0.06188269 -0.111316 0.026736312 -0.10523266 -0.065290034 0.33145264 -0.39653486 0.37320444 -0.30002552 0.23136526 0.52420735 -0.026124574 0.2144393 -0.2532305 -0.15846297 0.09229084 -0.13333648 -0.16755363 0.09808946 0.3434387 -0.07285119 -0.01749113 -0.2760951 -0.15578447 0.27223065 0.11770361 -0.025677294 0.24224737 -0.4846941 0.21074145 -0.8560567 0.100007884 -0.30694294 -0.2563665 -0.6124366 -0.40170333 0.14370336 0.32217425 -0.29601428 0.149146 0.07455608 -0.2558047 0.20556708 0.05846235 0.5611827 0.04735699 -0.23405646 -0.3408234 -0.08437033 0.061102927 -0.022414576 0.67890894 -0.025069548 0.25307602 0.13636112 -0.3599554 0.116183326 0.1633877 0.45482183 0.26155815 0.11312066 0.34277272 -0.022071796 0.40674776 -0.17346124 -0.3952904 0.67839575 0.019538937 -0.3228752 0.24629624 0.036161125
百合 -0.6018314 -1.0377244 0.19717908 0.7151606 0.23444237 -0.635352 0.031791545 0.2031247 0.20336366 -0.68054056 0.47160533 -0.60279983 0.6449777 -0.21753304 0.45484167 -0.117468886 -0.25925666 -0.4600943 -0.9140448 0.7064251 0.54296774 0.22601417 0.544764 -0.6793885 0.9497047 0.07864839 -0.008211668 -0.6843596 0.22741136 0.18531895 0.65506935 0.7351216 -0.115785204 -0.15939124 -0.032287963 0.004913207 0.31212837 0.24526852 0.44204393 1.0629771 -0.8649473 -0.353466 0.10868248 -0.41843522 0.12953712 -0.5979072 -0.64304674 -0.72356737 -0.48697588 -0.5198582 0.20656644 -0.51606464 0.110271074 0.39792067 -0.26492727 0.14952992 -0.2856501 0.24947326 0.4938392 -0.31304988 0.39654893 -0.36677098 -0.64255154 -0.16662183 -0.37516475 0.27074844 -0.19675834 -0.3407388 0.039235227 0.59464073 -0.3969547 0.507864 -0.00477586 0.3199368 1.0550336 -0.45265102 0.7957746 -0.27105865 -0.8556587 -0.08236784 0.6900898 -0.95541894 0.18603179 -0.3346214 -0.13940287 0.17916304 0.30209124 0.28734416 0.7919993 -0.009728826 0.39881492 -0.09132435 0.27692595 1.2650754 -0.002463281 0.6159982 0.73482555 -0.27703726 0.069913 -0.6118346
ソフトエッチ -0.022057371 0.19836164 -0.25008166 -0.13818917 -0.30342117 -0.48570222 -0.10973775 0.60521173 -0.2313985 0.28372028 -0.307265 0.0829769 0.032751024 -0.12672655 -0.10667436 -0.013250644 -0.4434719 -0.07866928 -0.22914818 0.31009728 -0.9220001 -0.33588088 0.08997408 -0.48291424 0.57551605 -0.25399435 -0.31745067 0.02631064 -0.20998505 0.7148804 -0.3852247 0.5091333 0.6218309 -0.2418968 -0.10127657 0.68746036 0.034665104 -0.036652967 0.14760324 0.8257504 0.34966713 0.28579518 -0.5711235 -0.18711475 -0.41600254 -0.0055642845 -0.19736306 0.30673897 -0.1271264 -0.12691149 -0.61635125 0.3297465 -0.38618302 -0.21125911 0.017894788 0.054322466 -0.31868428 -0.5808816 0.20230663 -0.42363128 0.695738 -0.9558931 -0.9666229 -0.08919435 -0.33278957 0.10457128 0.58519655 -0.40168583 0.021357644 0.5647984 -0.3699292 0.46956858 0.038045593 0.4545538 0.20679939 -0.13804491 0.033628333 0.8018499 -0.027199503 -0.37942654 -0.2864588 0.08003908 -0.20290497 -0.4629541 -0.15905565 0.40718296 0.18346891 0.0068950015 0.8389441 0.2031082 -0.09736021 -0.0821961 -0.17032547 0.27384537 0.56807005 0.35192823 -0.27584937 -0.031608082 0.50614077 0.36400297
レズ/女同士 0.1445927 0.32247865 0.3284513 0.21524027 0.7831546 -0.024126425 -0.80755055 -0.8263774 0.20751718 0.42427027 0.4595768 -0.2610597 0.6306864 0.62927866 0.16861631 0.40175736 -0.10579933 -0.49483794 -1.0458575 -0.65026826 0.1988062 -0.08721694 0.104305975 -0.5034798 0.36002272 -0.56915575 0.31379777 -0.049301583 -0.17934082 0.13344589 0.58260494 1.012239 0.55206287 -0.20494004 0.63730526 0.5412746 0.73897827 0.51356447 0.2027462 0.54657435 -0.31753215 0.63826084 0.43971995 -0.9446683 0.57097477 0.3313336 -0.019528074 -0.7855019 -0.44664338 0.111701004 -0.30327517 -0.56422466 0.06541562 -0.2542829 -1.1083647 -0.67881405 0.33136675 -0.1515858 -0.14436886 -0.33954167 0.19974358 -1.0199728 -0.999457 -0.17520207 -0.14009203 -0.16568239 0.020510558 -0.12684341 0.34239912 0.36702314 -0.38805985 1.1501486 0.5428381 0.30947876 -0.19537438 -1.1368908 1.1496204 -0.5455986 0.35422462 0.17505388 -0.106590435 -0.49587846 0.35298833 -0.6049859 1.0026494 0.7343525 -0.2499457 -0.09880462 -0.05069782 -0.18677235 -0.45801887 0.23685008 -0.16199727 0.93018335 0.21896587 -0.5307088 0.6966958 0.09821198 0.7078338 0.101299375
ぶっかけ 0.5245496 0.23539174 0.086076625 -0.053274304 0.03934345 0.052980863 0.042717464 0.038929883 -0.15564726 -0.17447516 -0.023623444 -0.1263019 0.4142152 0.24448906 -0.01532639 0.094431125 -0.5695074 0.22969826 -0.28737316 -0.0064771334 -0.09084858 0.30676764 0.233736 -0.616033 -0.260458 -0.32019883 0.10246874 0.0018963307 -0.19451316 0.51653296 -0.7275574 0.15564622 0.39506507 0.16955012 -0.16966064 0.91425985 -0.080589764 0.14399053 -0.02523851 -0.16241226 0.1535615 0.1819895 -0.4396256 -0.0034352716 -0.46000284 0.10257399 -0.006805957 0.8138586 0.045963284 -0.43880907 0.09618498 0.021135686 0.037823055 -0.27625042 -0.14741589 -0.23140338 0.2863949 0.270571 -0.3843647 -0.38389462 -0.47664443 -0.15740275 -0.11413962 -0.20877597 0.14768018 0.24659029 0.08263281 0.060542922 0.36269903 0.11086892 -0.15549259 0.022181882 0.1780022 0.1170425 0.48430008 -0.020802574 -0.45688045 -0.22211175 0.06665783 -0.43053615 -0.22615686 0.6239911 -0.24748072 0.1715287 -0.4193985 0.016467862 0.37426862 -0.26523215 -0.318702 -0.0055720564 -0.37932867 -0.19860397 0.16075227 -0.20848615 -0.14253691 -0.28581417 -0.1081577 0.16679473 -0.055732757 0.15249999
ビッチ 0.51559985 -0.35720634 0.026677571 0.37300634 -0.5519457 -0.27977905 -0.39489934 0.21038033 0.6614076 0.5670729 -0.05999546 -0.11449442 0.15708083 -0.47833708 -0.33942002 0.6573188 -0.4646878 0.046042327 -0.56119305 0.056804735 -0.49775994 0.6950376 0.16290574 -0.016320117 0.26218814 -0.058844432 -0.13011298 -0.38787943 -0.09891168 0.005990151 -0.1707048 0.27276772 0.24358784 0.37143418 0.1199277 0.5125838 -0.55677485 0.48697323 -0.03946494 -0.2201618 -0.20803335 0.25325254 0.08212696 -0.058518983 -0.31146362 0.25569826 0.18203644 1.007485 -0.14925599 -0.43821645 -0.14581212 -0.30309278 -0.5860842 -0.19903807 0.078899205 -0.54879767 0.44832045 0.032624785 -0.3703725 -0.2964842 -0.03383892 -0.5447344 -0.17328317 0.023951992 0.04018719 0.14073521 -0.2102283 0.25521114 -0.0802089 -0.3946206 -0.2258649 0.065761775 0.2788123 0.104657754 0.86611795 -0.06776264 0.014799114 0.049695134 -0.123731494 -0.39670646 -0.8005246 0.582445 -0.3560727 0.106219456 -0.055608682 0.29891238 0.25306565 -0.5869158 0.6224232 -0.055718213 -0.29443234 -0.20242241 0.8160335 -0.056043502 -0.088373445 -0.47794268 0.08718861 0.07890397 0.29055816 0.15476276
純愛 -0.070269436 0.15830106 -0.33287326 -0.1483132 -0.31755877 -0.432316 -0.19789381 0.20045072 -0.23809156 -0.42976207 -0.07365853 0.056429338 -0.18148391 0.33717066 -0.32947025 -0.23094063 -0.3055858 -0.01994867 0.097493745 0.23791339 -0.24349973 -0.44485983 -0.08912011 -0.2027974 0.6868673 -0.16952553 -0.69815624 -0.049076807 -0.4039599 0.4194688 -0.2996606 0.34194353 -0.24487124 -0.16443095 0.5592108 0.062232587 0.51932263 -0.0498631 -0.017741926 0.37832874 0.3154948 -0.52410424 -0.036815062 -0.16836564 -0.10180169 -0.037282545 -0.2749636 -0.13589677 0.22223622 -0.027928589 -0.1274675 0.117101334 -0.13132256 -0.07061616 0.01581481 0.049151786 -0.42295405 -0.30801874 0.21016683 -0.5644272 0.23120609 -0.44379425 -0.29654637 -0.4013096 -0.11567149 -0.39412355 0.26530626 -0.29093874 0.17125466 0.16451436 -0.5751104 0.32446912 -0.04651153 0.8488113 0.0040917937 -0.35489848 0.2415003 -0.03257997 -0.06891733 0.0018625217 0.005673342 -0.017545016 0.3354722 -0.089334175 -0.15402527 0.5818757 0.072078675 0.32734096 0.48962876 0.29474726 0.19384581 0.19552472 -0.066789664 -0.039753143 0.27963942 0.5331371 -0.110271394 -0.41712236 -0.0944655 0.004534586
イラマチオ 0.4067307 0.34143874 -0.073122844 -0.21375786 -0.03465483 -0.25007722 -0.3446127 0.3533719 -0.48942924 -0.17485508 0.12302092 -0.33025968 0.6888515 -0.10434837 0.08783799 -0.40279493 -0.5613461 0.7052448 -1.0616001 0.060308952 -0.18842721 0.24516515 0.65235937 -1.535972 -0.10923836 -0.8790254 0.05798405 0.4236106 -0.09764679 0.9638723 -0.7061535 1.186304 1.1135395 -0.42664337 0.1907462 1.8507552 0.15382712 -0.23473307 -0.19626188 -0.019989137 0.18891244 -0.09079573 -0.44990888 -0.0037364142 -0.4878975 0.27333796 0.11327836 0.9112095 -0.13543186 -0.47716036 -0.05117536 -0.25936753 0.13753387 -0.51073545 -0.08511973 -0.19651736 -0.0022922226 0.08551919 -0.5085607 0.07469865 -0.22496492 -0.19457492 -0.45001793 0.06948921 0.009061739 0.30581412 0.33417264 -0.5779411 0.10374524 -0.22884028 0.043385323 0.27672583 -0.058531623 0.18952991 0.55201745 -0.329225 0.26590475 -0.34024605 0.12513319 -0.55440474 -0.4944316 0.4502188 -0.17014754 -0.04053249 -0.21874945 0.1539265 0.721608 -0.11722091 -0.27115396 0.31777266 -0.39779022 -0.2873917 -0.03691638 0.41123572 -0.15764447 -0.61692405 -0.45514387 0.5119478 -0.30717397 0.049528744
